<?xml version="1.0"?>
<opencv_storage>
<cascade>
  <stageType>BOOST</stageType>
  <featureType>HAAR</featureType>
  <height>20</height>
  <width>20</width>
  <stageParams>
    <boostType>GAB</boostType>
    <minHitRate>9.9500000476837158e-01</minHitRate>
    <maxFalseAlarm>4.0000000596046448e-01</maxFalseAlarm>
    <weightTrimRate>9.4999999999999996e-01</weightTrimRate>
    <maxDepth>1</maxDepth>
    <maxWeakCount>100</maxWeakCount></stageParams>
  <featureParams>
    <maxCatCount>0</maxCatCount>
    <featSize>1</featSize>
    <mode>ALL</mode></featureParams>
  <stageNum>25</stageNum>
  <stages>
    <!-- stage 0 -->
    <_>
      <maxWeakCount>20</maxWeakCount>
      <stageThreshold>-1.4495640993118286e+00</stageThreshold>
      <weakClassifiers>
        <_>
          <internalNodes>
            0 -1 675 1.8110531568527222e-01</internalNodes>
          <leafValues>
            -4.6916532516479492e-01 4.6734234690666199e-01</leafValues></_>
        <_>
          <internalNodes>
            0 -1 1597 1.1447926983237267e-02</internalNodes>
          <leafValues>
            -1.7545296251773834e-01 6.6573953628540039e-01</leafValues></_>
        <_>
          <internalNodes>
            0 -1 1691 -2.3722541518509388e-03</internalNodes>
          <leafValues>
            6.5993845462799072e-01 -1.9117055833339691e-01</leafValues></_>
        <_>
          <internalNodes>
            0 -1 727 -1.1720046401023865e-02</internalNodes>
          <leafValues>
            6.2763059139251709e-01 -1.5564633905887604e-01</leafValues></_>
        <_>
          <internalNodes>
            0 -1 360 -3.1274415086954832e-03</internalNodes>
          <leafValues>
            6.9396352767944336e-01 -8.2525223493576050e-02</leafValues></_>
        <_>
          <internalNodes>
            0 -1 357 2.3112511262297630e-03</internalNodes>
          <leafValues>
            -1.9368065893650055e-01 5.4397255182266235e-01</leafValues></_>
        <_>
          <internalNodes>
            0 -1 1003 -2.0206226035952568e-02</internalNodes>
          <leafValues>
            7.6161402463912964e-01 -1.0045313835144043e-01</leafValues></_>
        <_>
          <internalNodes>
            0 -1 304 1.0839084163308144e-02</internalNodes>
          <leafValues>
            -1.1930907517671585e-01 5.2340185642242432e-01</leafValues></_>
        <_>
          <internalNodes>
            0 -1 1435 -8.5753360763192177e-03</internalNodes>
          <leafValues>
            6.4592492580413818e-01 -1.1908251792192459e-01</leafValues></_>
        <_>
          <internalNodes>
            0 -1 1784 -1.2247577309608459e-02</internalNodes>
          <leafValues>
            6.2220317125320435e-01 -1.2262012064456940e-01</leafValues></_>
        <_>
          <internalNodes>
            0 -1 1594 -2.0498188212513924e-02</internalNodes>
          <leafValues>
            6.1225187778472900e-01 -1.0120330750942230e-01</leafValues></_>
        <_>
          <internalNodes>
            0 -1 850 -1.1004859581589699e-02</internalNodes>
          <leafValues>
            5.5975288152694702e-01 -1.2003356218338013e-01</leafValues></_>
        <_>
          <internalNodes>
            0 -1 1610 7.8949583694338799e-03</internalNodes>
          <leafValues>
            -1.4917984604835510e-01 4.6617093682289124e-01</leafValues></_>
        <_>
          <internalNodes>
            0 -1 376 -1.4871962368488312e-02</internalNodes>
          <leafValues>
            6.2796533107757568e-01 -1.0418844223022461e-01</leafValues></_>
        <_>
          <internalNodes>
            0 -1 1392 1.1277541518211365e-02</internalNodes>
          <leafValues>
            -9.9687948822975159e-02 6.3432407379150391e-01</leafValues></_>
        <_>
          <internalNodes>
            0 -1 1394 -1.1909020133316517e-02</internalNodes>
          <leafValues>
            5.4255801439285278e-01 -1.2105658650398254e-01</leafValues></_>
        <_>
          <internalNodes>
            0 -1 758 -8.4134032949805260e-03</internalNodes>
          <leafValues>
            6.1619639396667480e-01 -4.8914998769760132e-02</leafValues></_>
        <_>
          <internalNodes>
            0 -1 387 4.6181590296328068e-03</internalNodes>
          <leafValues>
            -1.0992309451103210e-01 5.2041852474212646e-01</leafValues></_>
        <_>
          <internalNodes>
            0 -1 76 -3.8060426712036133e-01</internalNodes>
          <leafValues>
            -6.6122531890869141e-01 9.5269612967967987e-02</leafValues></_>
        <_>
          <internalNodes>
            0 -1 444 -7.8061893582344055e-03</internalNodes>
          <leafValues>
            4.8482695221900940e-01 -1.5312156081199646e-01</leafValues></_></weakClassifiers></_>
    <!-- stage 1 -->
    <_>
      <maxWeakCount>36</maxWeakCount>
      <stageThreshold>-1.4246602058410645e+00</stageThreshold>
      <weakClassifiers>
        <_>
          <internalNodes>
            0 -1 905 1.9695118069648743e-01</internalNodes>
          <leafValues>
            -4.1144481301307678e-01 5.2026468515396118e-01</leafValues></_>
        <_>
          <internalNodes>
            0 -1 113 3.9271372556686401e-01</internalNodes>
          <leafValues>
            8.6293667554855347e-02 -6.9361728429794312e-01</leafValues></_>
        <_>
          <internalNodes>
            0 -1 1755 -1.8454253673553467e-02</internalNodes>
          <leafValues>
            5.6197077035903931e-01 -1.2057794630527496e-01</leafValues></_>
        <_>
          <internalNodes>
            0 -1 1747 2.4754785001277924e-02</internalNodes>
          <leafValues>
            -5.8894794434309006e-02 6.3477134704589844e-01</leafValues></_>
        <_>
          <internalNodes>
            0 -1 1841 -1.7694957554340363e-02</internalNodes>
          <leafValues>
            5.3191500902175903e-01 -9.5410265028476715e-02</leafValues></_>
        <_>
          <internalNodes>
            0 -1 1666 -2.4929022416472435e-02</internalNodes>
          <leafValues>
            5.7539016008377075e-01 -1.0031737387180328e-01</leafValues></_>
        <_>
          <internalNodes>
            0 -1 1482 6.1542518436908722e-02</internalNodes>
          <leafValues>
            -1.2095140665769577e-01 4.4185939431190491e-01</leafValues></_>
        <_>
          <internalNodes>
            0 -1 1861 -1.7595196142792702e-02</internalNodes>
          <leafValues>
            5.6095010042190552e-01 -1.1126780509948730e-01</leafValues></_>
        <_>
          <internalNodes>
            0 -1 1863 1.5594050288200378e-02</internalNodes>
          <leafValues>
            -7.7052034437656403e-02 5.7764232158660889e-01</leafValues></_>
        <_>
          <internalNodes>
            0 -1 1312 -1.7191097140312195e-02</internalNodes>
          <leafValues>
            4.7633871436119080e-01 -9.7956918179988861e-02</leafValues></_>
        <_>
          <internalNodes>
            0 -1 1385 2.2541370242834091e-02</internalNodes>
          <leafValues>
            -7.6350443065166473e-02 5.2294427156448364e-01</leafValues></_>
        <_>
          <internalNodes>
            0 -1 622 2.2110361605882645e-03</internalNodes>
          <leafValues>
            -1.2169952690601349e-01 3.7114286422729492e-01</leafValues></_>
        <_>
          <internalNodes>
            0 -1 1481 1.2893601320683956e-02</internalNodes>
          <leafValues>
            -9.6850596368312836e-02 4.3971595168113708e-01</leafValues></_>
        <_>
          <internalNodes>
            0 -1 1031 -2.9124137014150620e-02</internalNodes>
          <leafValues>
            -8.3795487880706787e-01 5.4807890206575394e-02</leafValues></_>
        <_>
          <internalNodes>
            0 -1 805 -1.1163590475916862e-02</internalNodes>
          <leafValues>
            4.6321290731430054e-01 -9.2390313744544983e-02</leafValues></_>
        <_>
          <internalNodes>
            0 -1 209 -3.0913276597857475e-02</internalNodes>
          <leafValues>
            -7.3598003387451172e-01 5.7162757962942123e-02</leafValues></_>
        <_>
          <internalNodes>
            0 -1 191 5.9927082620561123e-03</internalNodes>
          <leafValues>
            -1.1899513751268387e-01 3.5212361812591553e-01</leafValues></_>
        <_>
          <internalNodes>
            0 -1 626 -3.4407423809170723e-03</internalNodes>
          <leafValues>
            2.7559641003608704e-01 -1.4700081944465637e-01</leafValues></_>
        <_>
          <internalNodes>
            0 -1 1705 -9.6727721393108368e-03</internalNodes>
          <leafValues>
            3.8806623220443726e-01 -1.0777829587459564e-01</leafValues></_>
        <_>
          <internalNodes>
            0 -1 1869 -1.6509836539626122e-02</internalNodes>
          <leafValues>
            5.4524928331375122e-01 -6.8578265607357025e-02</leafValues></_>
        <_>
          <internalNodes>
            0 -1 1564 -5.8943340554833412e-03</internalNodes>
          <leafValues>
            3.4008926153182983e-01 -1.0485139489173889e-01</leafValues></_>
        <_>
          <internalNodes>
            0 -1 980 2.2545836865901947e-02</internalNodes>
          <leafValues>
            -6.0711909085512161e-02 4.7248926758766174e-01</leafValues></_>
        <_>
          <internalNodes>
            0 -1 922 -5.9811100363731384e-03</internalNodes>
          <leafValues>
            3.3758521080017090e-01 -1.2812097370624542e-01</leafValues></_>
        <_>
          <internalNodes>
            0 -1 138 -4.0230084210634232e-02</internalNodes>
          <leafValues>
            -8.2427757978439331e-01 4.9456186592578888e-02</leafValues></_>
        <_>
          <internalNodes>
            0 -1 630 -3.5424917005002499e-03</internalNodes>
          <leafValues>
            2.6530873775482178e-01 -1.2839820981025696e-01</leafValues></_>
        <_>
          <internalNodes>
            0 -1 1608 -2.8680576942861080e-03</internalNodes>
          <leafValues>
            3.7105375528335571e-01 -8.8215366005897522e-02</leafValues></_>
        <_>
          <internalNodes>
            0 -1 1777 -1.2961791828274727e-02</internalNodes>
          <leafValues>
            4.0806686878204346e-01 -7.7640593051910400e-02</leafValues></_>
        <_>
          <internalNodes>
            0 -1 1767 -5.5192485451698303e-03</internalNodes>
          <leafValues>
            2.7051046490669250e-01 -1.2159786373376846e-01</leafValues></_>
        <_>
          <internalNodes>
            0 -1 196 -3.0818609520792961e-02</internalNodes>
          <leafValues>
            -6.8754005432128906e-01 5.1870271563529968e-02</leafValues></_>
        <_>
          <internalNodes>
            0 -1 210 3.1677853316068649e-02</internalNodes>
          <leafValues>
            -1.0791361331939697e-01 3.7168905138969421e-01</leafValues></_>
        <_>
          <internalNodes>
            0 -1 110 1.2320926412940025e-02</internalNodes>
          <leafValues>
            -1.3489155471324921e-01 2.5775185227394104e-01</leafValues></_>
        <_>
          <internalNodes>
            0 -1 328 -3.0389097519218922e-03</internalNodes>
          <leafValues>
            2.7108347415924072e-01 -1.3299629092216492e-01</leafValues></_>
        <_>
          <internalNodes>
            0 -1 257 -3.4651041030883789e-02</internalNodes>
          <leafValues>
            -7.7046012878417969e-01 4.1751086711883545e-02</leafValues></_>
        <_>
          <internalNodes>
            0 -1 1791 2.3196451365947723e-03</internalNodes>
          <leafValues>
            -1.2410945445299149e-01 2.6182010769844055e-01</leafValues></_>
        <_>
          <internalNodes>
            0 -1 186 -2.4157203733921051e-02</internalNodes>
          <leafValues>
            -5.8234113454818726e-01 5.4871704429388046e-02</leafValues></_>
        <_>
          <internalNodes>
            0 -1 1332 9.0079912915825844e-03</internalNodes>
          <leafValues>
            -9.1613836586475372e-02 3.6700785160064697e-01</leafValues></_></weakClassifiers></_>
    <!-- stage 2 -->
    <_>
      <maxWeakCount>60</maxWeakCount>
      <stageThreshold>-1.3821977376937866e+00</stageThreshold>
      <weakClassifiers>
        <_>
          <internalNodes>
            0 -1 558 9.3319937586784363e-02</internalNodes>
          <leafValues>
            -4.4201159477233887e-01 1.9315624237060547e-01</leafValues></_>
        <_>
          <internalNodes>
            0 -1 1911 1.7141971737146378e-02</internalNodes>
          <leafValues>
            -1.3278616964817047e-01 4.8967498540878296e-01</leafValues></_>
        <_>
          <internalNodes>
            0 -1 1769 -2.3474823683500290e-02</internalNodes>
          <leafValues>
            4.9037358164787292e-01 -1.4530861377716064e-01</leafValues></_>
        <_>
          <internalNodes>
            0 -1 1579 -2.0749509334564209e-02</internalNodes>
          <leafValues>
            4.6854445338249207e-01 -5.7060811668634415e-02</leafValues></_>
        <_>
          <internalNodes>
            0 -1 1073 2.1572396159172058e-02</internalNodes>
          <leafValues>
            -8.7560139596462250e-02 4.5473179221153259e-01</leafValues></_>
        <_>
          <internalNodes>
            0 -1 1094 -8.7065007537603378e-03</internalNodes>
          <leafValues>
            3.5889789462089539e-01 -1.2627597153186798e-01</leafValues></_>
        <_>
          <internalNodes>
            0 -1 979 -9.5431040972471237e-03</internalNodes>
          <leafValues>
            3.3011609315872192e-01 -9.7165733575820923e-02</leafValues></_>
        <_>
          <internalNodes>
            0 -1 1704 -1.0715280659496784e-02</internalNodes>
          <leafValues>
            4.0107911825180054e-01 -8.1404060125350952e-02</leafValues></_>
        <_>
          <internalNodes>
            0 -1 1785 2.4161245673894882e-02</internalNodes>
          <leafValues>
            -6.4863577485084534e-02 5.2591657638549805e-01</leafValues></_>
        <_>
          <internalNodes>
            0 -1 1491 -1.7709903419017792e-02</internalNodes>
          <leafValues>
            4.2423656582832336e-01 -7.1040287613868713e-02</leafValues></_>
        <_>
          <internalNodes>
            0 -1 1551 6.9120042026042938e-02</internalNodes>
          <leafValues>
            -9.1187916696071625e-02 3.5156846046447754e-01</leafValues></_>
        <_>
          <internalNodes>
            0 -1 1102 -2.1725643426179886e-02</internalNodes>
          <leafValues>
            2.3638644814491272e-01 -1.2060602754354477e-01</leafValues></_>
        <_>
          <internalNodes>
            0 -1 1664 -8.7867658585309982e-03</internalNodes>
          <leafValues>
            3.0816560983657837e-01 -7.3455132544040680e-02</leafValues></_>
        <_>
          <internalNodes>
            0 -1 973 -1.1256201192736626e-02</internalNodes>
          <leafValues>
            3.2199066877365112e-01 -8.6545757949352264e-02</leafValues></_>
        <_>
          <internalNodes>
            0 -1 1798 -1.2941420078277588e-02</internalNodes>
          <leafValues>
            4.0448382496833801e-01 -4.2342867702245712e-02</leafValues></_>
        <_>
          <internalNodes>
            0 -1 851 -1.2684255838394165e-02</internalNodes>
          <leafValues>
            2.7153778076171875e-01 -8.5815899074077606e-02</leafValues></_>
        <_>
          <internalNodes>
            0 -1 1358 -1.8895482644438744e-02</internalNodes>
          <leafValues>
            -6.7112827301025391e-01 4.0300279855728149e-02</leafValues></_>
        <_>
          <internalNodes>
            0 -1 1876 -8.1443730741739273e-03</internalNodes>
          <leafValues>
            3.2362017035484314e-01 -8.0314323306083679e-02</leafValues></_>
        <_>
          <internalNodes>
            0 -1 249 -3.7979960441589355e-02</internalNodes>
          <leafValues>
            -6.7566025257110596e-01 4.1376978158950806e-02</leafValues></_>
        <_>
          <internalNodes>
            0 -1 721 2.8287908434867859e-01</internalNodes>
          <leafValues>
            -5.6753434240818024e-02 5.2991890907287598e-01</leafValues></_>
        <_>
          <internalNodes>
            0 -1 1320 1.4870129525661469e-02</internalNodes>
          <leafValues>
            -7.0269763469696045e-02 2.9747870564460754e-01</leafValues></_>
        <_>
          <internalNodes>
            0 -1 1319 -5.0051771104335785e-03</internalNodes>
          <leafValues>
            2.8693479299545288e-01 -1.2788948416709900e-01</leafValues></_>
        <_>
          <internalNodes>
            0 -1 1894 1.4094348996877670e-02</internalNodes>
          <leafValues>
            -8.8560529053211212e-02 2.5876811146736145e-01</leafValues></_>
        <_>
          <internalNodes>
            0 -1 699 4.5021802186965942e-01</internalNodes>
          <leafValues>
            -4.4770576059818268e-02 5.4117357730865479e-01</leafValues></_>
        <_>
          <internalNodes>
            0 -1 1340 3.7207449786365032e-03</internalNodes>
          <leafValues>
            -1.0364720970392227e-01 2.4594619870185852e-01</leafValues></_>
        <_>
          <internalNodes>
            0 -1 228 -3.6735527217388153e-02</internalNodes>
          <leafValues>
            -6.7035394906997681e-01 3.7198379635810852e-02</leafValues></_>
        <_>
          <internalNodes>
            0 -1 1697 -1.3607800006866455e-02</internalNodes>
          <leafValues>
            3.0771324038505554e-01 -8.5458502173423767e-02</leafValues></_>
        <_>
          <internalNodes>
            0 -1 429 -4.3687912821769714e-01</internalNodes>
          <leafValues>
            -6.9110155105590820e-01 3.4899242222309113e-02</leafValues></_>
        <_>
          <internalNodes>
            0 -1 81 8.9261913672089577e-04</internalNodes>
          <leafValues>
            7.2816789150238037e-02 -2.7985143661499023e-01</leafValues></_>
        <_>
          <internalNodes>
            0 -1 1174 -1.0989002883434296e-02</internalNodes>
          <leafValues>
            2.7225649356842041e-01 -8.2253858447074890e-02</leafValues></_>
        <_>
          <internalNodes>
            0 -1 179 7.2584375739097595e-03</internalNodes>
          <leafValues>
            -1.3248470425605774e-01 1.7488384246826172e-01</leafValues></_>
        <_>
          <internalNodes>
            0 -1 1221 -7.3453551158308983e-03</internalNodes>
          <leafValues>
            2.5347390770912170e-01 -9.3724228441715240e-02</leafValues></_>
        <_>
          <internalNodes>
            0 -1 338 -5.9077888727188110e-03</internalNodes>
          <leafValues>
            2.1216341853141785e-01 -9.8978571593761444e-02</leafValues></_>
        <_>
          <internalNodes>
            0 -1 399 -3.9758291095495224e-02</internalNodes>
          <leafValues>
            -7.5745594501495361e-01 2.6051724329590797e-02</leafValues></_>
        <_>
          <internalNodes>
            0 -1 238 -4.2006745934486389e-02</internalNodes>
          <leafValues>
            -7.5178861618041992e-01 2.2004887461662292e-02</leafValues></_>
        <_>
          <internalNodes>
            0 -1 553 -8.7682772427797318e-03</internalNodes>
          <leafValues>
            2.0924779772758484e-01 -9.5708496868610382e-02</leafValues></_>
        <_>
          <internalNodes>
            0 -1 601 -3.8521472364664078e-02</internalNodes>
          <leafValues>
            -7.0957213640213013e-01 2.7269951999187469e-02</leafValues></_>
        <_>
          <internalNodes>
            0 -1 1124 -2.2147662937641144e-02</internalNodes>
          <leafValues>
            2.1674637496471405e-01 -9.0826548635959625e-02</leafValues></_>
        <_>
          <internalNodes>
            0 -1 851 1.0559787973761559e-02</internalNodes>
          <leafValues>
            -8.3216860890388489e-02 2.5310140848159790e-01</leafValues></_>
        <_>
          <internalNodes>
            0 -1 458 -6.9558106362819672e-02</internalNodes>
          <leafValues>
            2.4834737181663513e-01 -8.2467585802078247e-02</leafValues></_>
        <_>
          <internalNodes>
            0 -1 1859 -3.8487606216222048e-03</internalNodes>
          <leafValues>
            2.4342663586139679e-01 -8.4089577198028564e-02</leafValues></_>
        <_>
          <internalNodes>
            0 -1 195 -3.3452689647674561e-02</internalNodes>
          <leafValues>
            -6.9720435142517090e-01 2.9818376526236534e-02</leafValues></_>
        <_>
          <internalNodes>
            0 -1 846 -2.0561689510941505e-02</internalNodes>
          <leafValues>
            2.2031392157077789e-01 -1.0524792224168777e-01</leafValues></_>
        <_>
          <internalNodes>
            0 -1 475 9.0576112270355225e-02</internalNodes>
          <leafValues>
            -7.8750774264335632e-02 2.9521629214286804e-01</leafValues></_>
        <_>
          <internalNodes>
            0 -1 1432 -1.3576827477663755e-03</internalNodes>
          <leafValues>
            1.6307380795478821e-01 -1.1996750533580780e-01</leafValues></_>
        <_>
          <internalNodes>
            0 -1 188 -3.0375793576240540e-02</internalNodes>
          <leafValues>
            -6.1119276285171509e-01 3.8216244429349899e-02</leafValues></_>
        <_>
          <internalNodes>
            0 -1 1659 -6.0675716958940029e-03</internalNodes>
          <leafValues>
            2.0948863029479980e-01 -9.4263337552547455e-02</leafValues></_>
        <_>
          <internalNodes>
            0 -1 1740 5.7571409270167351e-03</internalNodes>
          <leafValues>
            -8.2376778125762939e-02 2.5126221776008606e-01</leafValues></_>
        <_>
          <internalNodes>
            0 -1 1677 2.3406013846397400e-02</internalNodes>
          <leafValues>
            -4.9047321081161499e-02 3.7378001213073730e-01</leafValues></_>
        <_>
          <internalNodes>
            0 -1 683 -1.4044769108295441e-02</internalNodes>
          <leafValues>
            3.7507182359695435e-01 -5.0491504371166229e-02</leafValues></_>
        <_>
          <internalNodes>
            0 -1 1932 3.9162326720543206e-04</internalNodes>
          <leafValues>
            9.4206176698207855e-02 -2.1381407976150513e-01</leafValues></_>
        <_>
          <internalNodes>
            0 -1 117 -3.6401554942131042e-02</internalNodes>
          <leafValues>
            -5.8281034231185913e-01 2.9732631519436836e-02</leafValues></_>
        <_>
          <internalNodes>
            0 -1 575 -1.7231401056051254e-02</internalNodes>
          <leafValues>
            2.0822522044181824e-01 -1.0202419012784958e-01</leafValues></_>
        <_>
          <internalNodes>
            0 -1 289 2.1374104544520378e-02</internalNodes>
          <leafValues>
            -1.1582928150892258e-01 2.0875631272792816e-01</leafValues></_>
        <_>
          <internalNodes>
            0 -1 1257 -2.1506454795598984e-03</internalNodes>
          <leafValues>
            1.5444110333919525e-01 -1.3128131628036499e-01</leafValues></_>
        <_>
          <internalNodes>
            0 -1 606 -4.0962271392345428e-02</internalNodes>
          <leafValues>
            -6.8438392877578735e-01 3.0238542705774307e-02</leafValues></_>
        <_>
          <internalNodes>
            0 -1 1845 -5.4781660437583923e-03</internalNodes>
          <leafValues>
            2.1259114146232605e-01 -8.9727863669395447e-02</leafValues></_>
        <_>
          <internalNodes>
            0 -1 1002 -5.0828047096729279e-03</internalNodes>
          <leafValues>
            1.9172227382659912e-01 -9.4883829355239868e-02</leafValues></_>
        <_>
          <internalNodes>
            0 -1 305 7.2213572263717651e-01</internalNodes>
          <leafValues>
            -2.6810718700289726e-02 6.4699029922485352e-01</leafValues></_>
        <_>
          <internalNodes>
            0 -1 1807 2.0523354411125183e-02</internalNodes>
          <leafValues>
            -2.2563440725207329e-02 6.8584227561950684e-01</leafValues></_></weakClassifiers></_>
    <!-- stage 3 -->
    <_>
      <maxWeakCount>42</maxWeakCount>
      <stageThreshold>-1.3674851655960083e+00</stageThreshold>
      <weakClassifiers>
        <_>
          <internalNodes>
            0 -1 576 2.4488720297813416e-01</internalNodes>
          <leafValues>
            -4.2828461527824402e-01 5.3568744659423828e-01</leafValues></_>
        <_>
          <internalNodes>
            0 -1 513 -3.2507836818695068e-02</internalNodes>
          <leafValues>
            4.6432235836982727e-01 -1.3587777316570282e-01</leafValues></_>
        <_>
          <internalNodes>
            0 -1 1333 -3.5944037139415741e-02</internalNodes>
          <leafValues>
            3.6600178480148315e-01 -2.0461468398571014e-01</leafValues></_>
        <_>
          <internalNodes>
            0 -1 590 -2.8543712571263313e-02</internalNodes>
          <leafValues>
            4.1615548729896545e-01 -1.2957018613815308e-01</leafValues></_>
        <_>
          <internalNodes>
            0 -1 187 -5.3120180964469910e-02</internalNodes>
          <leafValues>
            4.7173029184341431e-01 -1.0778342187404633e-01</leafValues></_>
        <_>
          <internalNodes>
            0 -1 1165 -2.5977309793233871e-02</internalNodes>
          <leafValues>
            3.3000403642654419e-01 -1.4322523772716522e-01</leafValues></_>
        <_>
          <internalNodes>
            0 -1 1185 -2.7531577274203300e-02</internalNodes>
          <leafValues>
            4.1571941971778870e-01 -9.9033497273921967e-02</leafValues></_>
        <_>
          <internalNodes>
            0 -1 608 -6.5004415810108185e-03</internalNodes>
          <leafValues>
            3.2584384083747864e-01 -1.1430247128009796e-01</leafValues></_>
        <_>
          <internalNodes>
            0 -1 736 1.5485796146094799e-02</internalNodes>
          <leafValues>
            -1.0511957854032516e-01 3.6241239309310913e-01</leafValues></_>
        <_>
          <internalNodes>
            0 -1 956 -7.0941383019089699e-03</internalNodes>
          <leafValues>
            3.0294483900070190e-01 -1.3278272747993469e-01</leafValues></_>
        <_>
          <internalNodes>
            0 -1 1824 -1.6832839697599411e-02</internalNodes>
          <leafValues>
            2.7585083246231079e-01 -1.1392892152070999e-01</leafValues></_>
        <_>
          <internalNodes>
            0 -1 1748 -8.8436529040336609e-03</internalNodes>
          <leafValues>
            2.9171448945999146e-01 -7.2926618158817291e-02</leafValues></_>
        <_>
          <internalNodes>
            0 -1 906 3.4079425036907196e-02</internalNodes>
          <leafValues>
            -6.9257475435733795e-02 3.9911779761314392e-01</leafValues></_>
        <_>
          <internalNodes>
            0 -1 557 -2.1851539611816406e-02</internalNodes>
          <leafValues>
            3.0838635563850403e-01 -1.0658972710371017e-01</leafValues></_>
        <_>
          <internalNodes>
            0 -1 645 6.8254270590841770e-03</internalNodes>
          <leafValues>
            -7.8333795070648193e-02 3.1830838322639465e-01</leafValues></_>
        <_>
          <internalNodes>
            0 -1 1568 -7.7873053960502148e-03</internalNodes>
          <leafValues>
            2.6489049196243286e-01 -1.0417423397302628e-01</leafValues></_>
        <_>
          <internalNodes>
            0 -1 67 8.2573600113391876e-02</internalNodes>
          <leafValues>
            -8.3250977098941803e-02 3.3110019564628601e-01</leafValues></_>
        <_>
          <internalNodes>
            0 -1 302 -3.9837121963500977e-02</internalNodes>
          <leafValues>
            3.2548591494560242e-01 -8.9634291827678680e-02</leafValues></_>
        <_>
          <internalNodes>
            0 -1 1589 2.1126391366124153e-02</internalNodes>
          <leafValues>
            -9.3430683016777039e-02 2.6380249857902527e-01</leafValues></_>
        <_>
          <internalNodes>
            0 -1 1930 3.6709714913740754e-04</internalNodes>
          <leafValues>
            1.0572420805692673e-01 -2.2768270969390869e-01</leafValues></_>
        <_>
          <internalNodes>
            0 -1 1817 -4.9039777368307114e-03</internalNodes>
          <leafValues>
            -4.8502355813980103e-01 4.8566084355115891e-02</leafValues></_>
        <_>
          <internalNodes>
            0 -1 1196 -6.8916685879230499e-02</internalNodes>
          <leafValues>
            2.5709250569343567e-01 -9.8147340118885040e-02</leafValues></_>
        <_>
          <internalNodes>
            0 -1 574 -3.9415452629327774e-02</internalNodes>
          <leafValues>
            2.6387363672256470e-01 -9.9856361746788025e-02</leafValues></_>
        <_>
          <internalNodes>
            0 -1 678 2.3415279388427734e-01</internalNodes>
          <leafValues>
            -3.3520977944135666e-02 6.4453548192977905e-01</leafValues></_>
        <_>
          <internalNodes>
            0 -1 505 3.0122706666588783e-02</internalNodes>
          <leafValues>
            -7.4480034410953522e-02 3.0226570367813110e-01</leafValues></_>
        <_>
          <internalNodes>
            0 -1 669 -9.1279149055480957e-02</internalNodes>
          <leafValues>
            3.3247411251068115e-01 -6.5861105918884277e-02</leafValues></_>
        <_>
          <internalNodes>
            0 -1 169 -3.3367839641869068e-03</internalNodes>
          <leafValues>
            -4.8916849493980408e-01 4.5375756919384003e-02</leafValues></_>
        <_>
          <internalNodes>
            0 -1 1672 -8.7332762777805328e-03</internalNodes>
          <leafValues>
            2.2598534822463989e-01 -9.6438542008399963e-02</leafValues></_>
        <_>
          <internalNodes>
            0 -1 833 9.4056548550724983e-03</internalNodes>
          <leafValues>
            -8.1337511539459229e-02 2.4719375371932983e-01</leafValues></_>
        <_>
          <internalNodes>
            0 -1 275 2.6546508888714015e-04</internalNodes>
          <leafValues>
            9.7348265349864960e-02 -2.0972573757171631e-01</leafValues></_>
        <_>
          <internalNodes>
            0 -1 13 -1.0129503905773163e-02</internalNodes>
          <leafValues>
            -6.5118360519409180e-01 2.6421204209327698e-02</leafValues></_>
        <_>
          <internalNodes>
            0 -1 39 -4.2538093402981758e-03</internalNodes>
          <leafValues>
            1.8989472091197968e-01 -9.7720116376876831e-02</leafValues></_>
        <_>
          <internalNodes>
            0 -1 143 -4.3327398598194122e-03</internalNodes>
          <leafValues>
            1.9059924781322479e-01 -9.2967420816421509e-02</leafValues></_>
        <_>
          <internalNodes>
            0 -1 147 9.6773318946361542e-03</internalNodes>
          <leafValues>
            -8.1502892076969147e-02 3.0721616744995117e-01</leafValues></_>
        <_>
          <internalNodes>
            0 -1 1507 2.5128293037414551e-01</internalNodes>
          <leafValues>
            -2.9865335673093796e-02 5.9369927644729614e-01</leafValues></_>
        <_>
          <internalNodes>
            0 -1 460 -6.6047729924321175e-03</internalNodes>
          <leafValues>
            2.2805614769458771e-01 -8.6029276251792908e-02</leafValues></_>
        <_>
          <internalNodes>
            0 -1 55 2.8272793861106038e-04</internalNodes>
          <leafValues>
            9.7192563116550446e-02 -2.0616212487220764e-01</leafValues></_>
        <_>
          <internalNodes>
            0 -1 1683 -2.5741662830114365e-02</internalNodes>
          <leafValues>
            -8.5813659429550171e-01 1.7724610865116119e-02</leafValues></_>
        <_>
          <internalNodes>
            0 -1 893 -1.3693508692085743e-02</internalNodes>
          <leafValues>
            2.0517899096012115e-01 -9.6097059547901154e-02</leafValues></_>
        <_>
          <internalNodes>
            0 -1 1556 -2.2470507770776749e-02</internalNodes>
          <leafValues>
            2.2992742061614990e-01 -1.0337062925100327e-01</leafValues></_>
        <_>
          <internalNodes>
            0 -1 1409 1.6124376561492682e-03</internalNodes>
          <leafValues>
            -1.3420157134532928e-01 1.6309513151645660e-01</leafValues></_>
        <_>
          <internalNodes>
            0 -1 655 -3.6118484567850828e-03</internalNodes>
          <leafValues>
            2.0302343368530273e-01 -9.8763749003410339e-02</leafValues></_></weakClassifiers></_>
    <!-- stage 4 -->
    <_>
      <maxWeakCount>90</maxWeakCount>
      <stageThreshold>-1.2818102836608887e+00</stageThreshold>
      <weakClassifiers>
        <_>
          <internalNodes>
            0 -1 448 2.0137545466423035e-01</internalNodes>
          <leafValues>
            -4.0809398889541626e-01 2.5975608825683594e-01</leafValues></_>
        <_>
          <internalNodes>
            0 -1 1357 -1.3747261837124825e-02</internalNodes>
          <leafValues>
            2.2962734103202820e-01 -1.2178709357976913e-01</leafValues></_>
        <_>
          <internalNodes>
            0 -1 1745 -1.2825667858123779e-02</internalNodes>
          <leafValues>
            2.7404159307479858e-01 -1.0312968492507935e-01</leafValues></_>
        <_>
          <internalNodes>
            0 -1 724 5.0641512870788574e-01</internalNodes>
          <leafValues>
            -4.2331166565418243e-02 5.7134401798248291e-01</leafValues></_>
        <_>
          <internalNodes>
            0 -1 483 -4.7607462853193283e-02</internalNodes>
          <leafValues>
            2.9042863845825195e-01 -9.3865625560283661e-02</leafValues></_>
        <_>
          <internalNodes>
            0 -1 1619 9.8597761243581772e-03</internalNodes>
          <leafValues>
            -7.2720803320407867e-02 2.6926207542419434e-01</leafValues></_>
        <_>
          <internalNodes>
            0 -1 1783 -1.4867734163999557e-02</internalNodes>
          <leafValues>
            2.6378297805786133e-01 -8.2723222672939301e-02</leafValues></_>
        <_>
          <internalNodes>
            0 -1 1148 8.0911993980407715e-02</internalNodes>
          <leafValues>
            -3.9530940353870392e-02 5.5871713161468506e-01</leafValues></_>
        <_>
          <internalNodes>
            0 -1 491 7.0803731679916382e-02</internalNodes>
          <leafValues>
            -6.5796025097370148e-02 3.3404892683029175e-01</leafValues></_>
        <_>
          <internalNodes>
            0 -1 924 2.0479347556829453e-02</internalNodes>
          <leafValues>
            -5.8937717229127884e-02 3.0358749628067017e-01</leafValues></_>
        <_>
          <internalNodes>
            0 -1 689 -4.4373221695423126e-02</internalNodes>
          <leafValues>
            2.3012688755989075e-01 -9.4571463763713837e-02</leafValues></_>
        <_>
          <internalNodes>
            0 -1 1447 -2.4494646117091179e-02</internalNodes>
          <leafValues>
            -8.1452953815460205e-01 5.3315620869398117e-02</leafValues></_>
        <_>
          <internalNodes>
            0 -1 1929 1.7700754106044769e-02</internalNodes>
          <leafValues>
            5.9347324073314667e-02 -3.4022077918052673e-01</leafValues></_>
        <_>
          <internalNodes>
            0 -1 54 4.5606491039507091e-04</internalNodes>
          <leafValues>
            4.5704048126935959e-02 -2.8907817602157593e-01</leafValues></_>
        <_>
          <internalNodes>
            0 -1 54 -8.6153385927900672e-04</internalNodes>
          <leafValues>
            -2.9856610298156738e-01 7.6263859868049622e-02</leafValues></_>
        <_>
          <internalNodes>
            0 -1 336 2.3050200194120407e-02</internalNodes>
          <leafValues>
            -6.9796808063983917e-02 2.6393017172813416e-01</leafValues></_>
        <_>
          <internalNodes>
            0 -1 350 -3.6159656941890717e-02</internalNodes>
          <leafValues>
            -6.1179727315902710e-01 3.3571779727935791e-02</leafValues></_>
        <_>
          <internalNodes>
            0 -1 1737 -8.7857227772474289e-03</internalNodes>
          <leafValues>
            1.7512360215187073e-01 -1.0150203108787537e-01</leafValues></_>
        <_>
          <internalNodes>
            0 -1 693 1.4161258935928345e-02</internalNodes>
          <leafValues>
            -5.1760721951723099e-02 2.9685881733894348e-01</leafValues></_>
        <_>
          <internalNodes>
            0 -1 974 -7.6274066232144833e-03</internalNodes>
          <leafValues>
            1.9018425047397614e-01 -9.3027934432029724e-02</leafValues></_>
        <_>
          <internalNodes>
            0 -1 1282 -6.3624000176787376e-03</internalNodes>
          <leafValues>
            2.0685389637947083e-01 -8.1189990043640137e-02</leafValues></_>
        <_>
          <internalNodes>
            0 -1 591 3.6678087711334229e-01</internalNodes>
          <leafValues>
            -5.3479749709367752e-02 4.1536283493041992e-01</leafValues></_>
        <_>
          <internalNodes>
            0 -1 157 1.2493347749114037e-02</internalNodes>
          <leafValues>
            7.3205091059207916e-02 -2.7432504296302795e-01</leafValues></_>
        <_>
          <internalNodes>
            0 -1 1013 6.0796774923801422e-02</internalNodes>
          <leafValues>
            -6.3164673745632172e-02 2.8830495476722717e-01</leafValues></_>
        <_>
          <internalNodes>
            0 -1 368 -1.9400991499423981e-02</internalNodes>
          <leafValues>
            2.0763812959194183e-01 -9.3411125242710114e-02</leafValues></_>
        <_>
          <internalNodes>
            0 -1 1624 -3.7739034742116928e-03</internalNodes>
          <leafValues>
            1.5892097353935242e-01 -1.0841812938451767e-01</leafValues></_>
        <_>
          <internalNodes>
            0 -1 1010 -1.6504243016242981e-02</internalNodes>
          <leafValues>
            1.9969303905963898e-01 -8.6863607168197632e-02</leafValues></_>
        <_>
          <internalNodes>
            0 -1 597 6.0836812481284142e-03</internalNodes>
          <leafValues>
            -8.0622777342796326e-02 2.3442956805229187e-01</leafValues></_>
        <_>
          <internalNodes>
            0 -1 217 4.6164218336343765e-02</internalNodes>
          <leafValues>
            1.8990065902471542e-02 -7.6890623569488525e-01</leafValues></_>
        <_>
          <internalNodes>
            0 -1 351 -3.4080441109836102e-03</internalNodes>
          <leafValues>
            1.4814421534538269e-01 -1.1458307504653931e-01</leafValues></_>
        <_>
          <internalNodes>
            0 -1 119 1.0513798333704472e-03</internalNodes>
          <leafValues>
            6.2675200402736664e-02 -2.7324333786964417e-01</leafValues></_>
        <_>
          <internalNodes>
            0 -1 569 -4.2496770620346069e-03</internalNodes>
          <leafValues>
            1.9828170537948608e-01 -8.8981315493583679e-02</leafValues></_>
        <_>
          <internalNodes>
            0 -1 803 2.8942709788680077e-02</internalNodes>
          <leafValues>
            -6.1880350112915039e-02 2.6609936356544495e-01</leafValues></_>
        <_>
          <internalNodes>
            0 -1 1938 4.7193281352519989e-04</internalNodes>
          <leafValues>
            8.2364723086357117e-02 -1.9330979883670807e-01</leafValues></_>
        <_>
          <internalNodes>
            0 -1 1493 -5.8165006339550018e-03</internalNodes>
          <leafValues>
            1.6903105378150940e-01 -9.2792063951492310e-02</leafValues></_>
        <_>
          <internalNodes>
            0 -1 1156 -7.5136562809348106e-03</internalNodes>
          <leafValues>
            2.1552911400794983e-01 -8.5898734629154205e-02</leafValues></_>
        <_>
          <internalNodes>
            0 -1 168 -4.0227964520454407e-02</internalNodes>
          <leafValues>
            -6.8104326725006104e-01 2.2545645013451576e-02</leafValues></_>
        <_>
          <internalNodes>
            0 -1 1471 -3.5903858952224255e-03</internalNodes>
          <leafValues>
            1.4360833168029785e-01 -1.1286974698305130e-01</leafValues></_>
        <_>
          <internalNodes>
            0 -1 1826 1.7075465293601155e-03</internalNodes>
          <leafValues>
            9.0745426714420319e-02 -1.9308732450008392e-01</leafValues></_>
        <_>
          <internalNodes>
            0 -1 1640 -5.8221202343702316e-03</internalNodes>
          <leafValues>
            -3.4058207273483276e-01 4.7375388443470001e-02</leafValues></_>
        <_>
          <internalNodes>
            0 -1 1138 3.5477435449138284e-04</internalNodes>
          <leafValues>
            7.6417870819568634e-02 -2.0325693488121033e-01</leafValues></_>
        <_>
          <internalNodes>
            0 -1 602 1.9152797758579254e-02</internalNodes>
          <leafValues>
            -6.1000768095254898e-02 2.7474337816238403e-01</leafValues></_>
        <_>
          <internalNodes>
            0 -1 854 -7.6507818885147572e-03</internalNodes>
          <leafValues>
            2.2673632204532623e-01 -8.7239831686019897e-02</leafValues></_>
        <_>
          <internalNodes>
            0 -1 516 -6.1390884220600128e-03</internalNodes>
          <leafValues>
            1.5442603826522827e-01 -9.6200138330459595e-02</leafValues></_>
        <_>
          <internalNodes>
            0 -1 1195 -2.6608288288116455e-02</internalNodes>
          <leafValues>
            1.4658328890800476e-01 -1.0128570348024368e-01</leafValues></_>
        <_>
          <internalNodes>
            0 -1 412 3.5728531656786799e-04</internalNodes>
          <leafValues>
            8.1271544098854065e-02 -1.9214519858360291e-01</leafValues></_>
        <_>
          <internalNodes>
            0 -1 998 -8.0412894487380981e-02</internalNodes>
          <leafValues>
            1.8703491985797882e-01 -8.4827437996864319e-02</leafValues></_>
        <_>
          <internalNodes>
            0 -1 1261 6.1802148818969727e-02</internalNodes>
          <leafValues>
            -6.1223465949296951e-02 2.6829048991203308e-01</leafValues></_>
        <_>
          <internalNodes>
            0 -1 1716 -2.3008219432085752e-03</internalNodes>
          <leafValues>
            1.9760201871395111e-01 -8.0463141202926636e-02</leafValues></_>
        <_>
          <internalNodes>
            0 -1 363 -3.1652115285396576e-02</internalNodes>
          <leafValues>
            -5.6514894962310791e-01 2.5500506162643433e-02</leafValues></_>
        <_>
          <internalNodes>
            0 -1 1880 6.7498377757146955e-04</internalNodes>
          <leafValues>
            6.1604175716638565e-02 -2.3969399929046631e-01</leafValues></_>
        <_>
          <internalNodes>
            0 -1 768 -2.1868632175028324e-03</internalNodes>
          <leafValues>
            1.8118979036808014e-01 -8.8391162455081940e-02</leafValues></_>
        <_>
          <internalNodes>
            0 -1 259 5.4215779528021812e-04</internalNodes>
          <leafValues>
            6.6175207495689392e-02 -2.4871456623077393e-01</leafValues></_>
        <_>
          <internalNodes>
            0 -1 1776 -4.7926604747772217e-03</internalNodes>
          <leafValues>
            1.9289584457874298e-01 -8.9669033885002136e-02</leafValues></_>
        <_>
          <internalNodes>
            0 -1 108 -9.4173215329647064e-03</internalNodes>
          <leafValues>
            2.1063527464866638e-01 -7.1455970406532288e-02</leafValues></_>
        <_>
          <internalNodes>
            0 -1 109 6.1744661070406437e-03</internalNodes>
          <leafValues>
            -1.0386396944522858e-01 2.0573382079601288e-01</leafValues></_>
        <_>
          <internalNodes>
            0 -1 133 -1.4342982321977615e-02</internalNodes>
          <leafValues>
            -4.3612706661224365e-01 3.3769771456718445e-02</leafValues></_>
        <_>
          <internalNodes>
            0 -1 687 -2.1127164363861084e-03</internalNodes>
          <leafValues>
            1.3987725973129272e-01 -1.0272233188152313e-01</leafValues></_>
        <_>
          <internalNodes>
            0 -1 324 -3.7760712206363678e-02</internalNodes>
          <leafValues>
            -6.7794704437255859e-01 2.6482682675123215e-02</leafValues></_>
        <_>
          <internalNodes>
            0 -1 559 8.0944998189806938e-03</internalNodes>
          <leafValues>
            -7.2324052453041077e-02 2.1198402345180511e-01</leafValues></_>
        <_>
          <internalNodes>
            0 -1 1234 -1.0727458866313100e-03</internalNodes>
          <leafValues>
            1.5984272956848145e-01 -1.1110122501850128e-01</leafValues></_>
        <_>
          <internalNodes>
            0 -1 1051 3.2585579901933670e-04</internalNodes>
          <leafValues>
            7.8425638377666473e-02 -1.8208599090576172e-01</leafValues></_>
        <_>
          <internalNodes>
            0 -1 1350 -2.7179483324289322e-02</internalNodes>
          <leafValues>
            -7.7470922470092773e-01 1.6409920528531075e-02</leafValues></_>
        <_>
          <internalNodes>
            0 -1 442 -2.5463541969656944e-03</internalNodes>
          <leafValues>
            1.2465123832225800e-01 -1.1576063930988312e-01</leafValues></_>
        <_>
          <internalNodes>
            0 -1 816 -2.0194270473439246e-04</internalNodes>
          <leafValues>
            1.2731525301933289e-01 -1.1827554553747177e-01</leafValues></_>
        <_>
          <internalNodes>
            0 -1 981 -2.3018084466457367e-02</internalNodes>
          <leafValues>
            -7.4946463108062744e-01 1.8764343112707138e-02</leafValues></_>
        <_>
          <internalNodes>
            0 -1 941 -3.0870437622070313e-03</internalNodes>
          <leafValues>
            1.5750095248222351e-01 -9.3865096569061279e-02</leafValues></_>
        <_>
          <internalNodes>
            0 -1 1960 -6.1359093524515629e-04</internalNodes>
          <leafValues>
            -2.6176622509956360e-01 5.6905336678028107e-02</leafValues></_>
        <_>
          <internalNodes>
            0 -1 712 -1.0859830304980278e-02</internalNodes>
          <leafValues>
            1.5210026502609253e-01 -9.9557414650917053e-02</leafValues></_>
        <_>
          <internalNodes>
            0 -1 1262 -1.9742237403988838e-02</internalNodes>
          <leafValues>
            -4.9428865313529968e-01 3.2625883817672729e-02</leafValues></_>
        <_>
          <internalNodes>
            0 -1 548 7.5463030952960253e-04</internalNodes>
          <leafValues>
            8.3303377032279968e-02 -1.7605423927307129e-01</leafValues></_>
        <_>
          <internalNodes>
            0 -1 1961 5.5110885296016932e-04</internalNodes>
          <leafValues>
            6.6340021789073944e-02 -2.1764102578163147e-01</leafValues></_>
        <_>
          <internalNodes>
            0 -1 1867 -1.2110967189073563e-02</internalNodes>
          <leafValues>
            2.2216615080833435e-01 -6.5052554011344910e-02</leafValues></_>
        <_>
          <internalNodes>
            0 -1 1949 -4.8900591209530830e-03</internalNodes>
          <leafValues>
            -6.9328701496124268e-01 2.2607985883951187e-02</leafValues></_>
        <_>
          <internalNodes>
            0 -1 1867 5.9840939939022064e-03</internalNodes>
          <leafValues>
            -7.8539825975894928e-02 1.8488095700740814e-01</leafValues></_>
        <_>
          <internalNodes>
            0 -1 386 -5.3794268751516938e-04</internalNodes>
          <leafValues>
            1.2495774775743484e-01 -1.1169924587011337e-01</leafValues></_>
        <_>
          <internalNodes>
            0 -1 855 -1.7938114702701569e-02</internalNodes>
          <leafValues>
            1.6603328287601471e-01 -8.4403462707996368e-02</leafValues></_>
        <_>
          <internalNodes>
            0 -1 605 -1.6136100515723228e-02</internalNodes>
          <leafValues>
            1.9548912346363068e-01 -9.2923976480960846e-02</leafValues></_>
        <_>
          <internalNodes>
            0 -1 982 2.4189233779907227e-02</internalNodes>
          <leafValues>
            2.6184093207120895e-02 -5.4229968786239624e-01</leafValues></_>
        <_>
          <internalNodes>
            0 -1 1095 2.0766021683812141e-02</internalNodes>
          <leafValues>
            -5.7714812457561493e-02 2.3900736868381500e-01</leafValues></_>
        <_>
          <internalNodes>
            0 -1 495 -2.7037509717047215e-03</internalNodes>
          <leafValues>
            1.7060939967632294e-01 -8.5022248327732086e-02</leafValues></_>
        <_>
          <internalNodes>
            0 -1 1827 5.6714329868555069e-02</internalNodes>
          <leafValues>
            -4.2108748108148575e-02 3.4362429380416870e-01</leafValues></_>
        <_>
          <internalNodes>
            0 -1 87 -7.8765973448753357e-03</internalNodes>
          <leafValues>
            -1.7390862107276917e-01 8.1325501203536987e-02</leafValues></_>
        <_>
          <internalNodes>
            0 -1 666 -1.7524294089525938e-03</internalNodes>
          <leafValues>
            1.3328550755977631e-01 -1.0406530648469925e-01</leafValues></_>
        <_>
          <internalNodes>
            0 -1 1578 -2.6684124022722244e-03</internalNodes>
          <leafValues>
            1.7104698717594147e-01 -8.1081949174404144e-02</leafValues></_>
        <_>
          <internalNodes>
            0 -1 1433 -4.0682503022253513e-03</internalNodes>
          <leafValues>
            1.3737571239471436e-01 -9.8229698836803436e-02</leafValues></_>
        <_>
          <internalNodes>
            0 -1 224 5.4816119372844696e-02</internalNodes>
          <leafValues>
            1.9428763538599014e-02 -7.0613962411880493e-01</leafValues></_>
        <_>
          <internalNodes>
            0 -1 1035 -4.5844733715057373e-02</internalNodes>
          <leafValues>
            2.0432376861572266e-01 -6.8039484322071075e-02</leafValues></_>
        <_>
          <internalNodes>
            0 -1 1731 -2.3529384285211563e-02</internalNodes>
          <leafValues>
            2.2743801772594452e-01 -5.9239469468593597e-02</leafValues></_>
        <_>
          <internalNodes>
            0 -1 1397 -5.5397143587470055e-03</internalNodes>
          <leafValues>
            1.7551556229591370e-01 -8.1134669482707977e-02</leafValues></_></weakClassifiers></_>
    <!-- stage 5 -->
    <_>
      <maxWeakCount>100</maxWeakCount>
      <stageThreshold>-1.3066123723983765e+00</stageThreshold>
      <weakClassifiers>
        <_>
          <internalNodes>
            0 -1 1727 1.6135045886039734e-01</internalNodes>
          <leafValues>
            -3.8607680797576904e-01 7.5090624392032623e-02</leafValues></_>
        <_>
          <internalNodes>
            0 -1 130 3.2424889504909515e-02</internalNodes>
          <leafValues>
            -9.7405485808849335e-02 2.1913704276084900e-01</leafValues></_>
        <_>
          <internalNodes>
            0 -1 300 -7.8054210171103477e-03</internalNodes>
          <leafValues>
            1.8165883421897888e-01 -8.2942269742488861e-02</leafValues></_>
        <_>
          <internalNodes>
            0 -1 1575 -2.3671608418226242e-02</internalNodes>
          <leafValues>
            1.5302862226963043e-01 -9.5926493406295776e-02</leafValues></_>
        <_>
          <internalNodes>
            0 -1 900 -1.7664305865764618e-02</internalNodes>
          <leafValues>
            1.8619132041931152e-01 -8.0572918057441711e-02</leafValues></_>
        <_>
          <internalNodes>
            0 -1 1024 -9.3960054218769073e-03</internalNodes>
          <leafValues>
            1.8584991991519928e-01 -7.7927514910697937e-02</leafValues></_>
        <_>
          <internalNodes>
            0 -1 452 -8.5298568010330200e-03</internalNodes>
          <leafValues>
            1.7718507349491119e-01 -7.8032642602920532e-02</leafValues></_>
        <_>
          <internalNodes>
            0 -1 1793 -5.9319529682397842e-03</internalNodes>
          <leafValues>
            2.3855435848236084e-01 -3.9062973111867905e-02</leafValues></_>
        <_>
          <internalNodes>
            0 -1 1860 1.0007093660533428e-02</internalNodes>
          <leafValues>
            -7.1709737181663513e-02 2.6173326373100281e-01</leafValues></_>
        <_>
          <internalNodes>
            0 -1 239 6.3809938728809357e-04</internalNodes>
          <leafValues>
            5.1180683076381683e-02 -2.7388074994087219e-01</leafValues></_>
        <_>
          <internalNodes>
            0 -1 487 -3.5598529502749443e-03</internalNodes>
          <leafValues>
            1.6605933010578156e-01 -8.9090295135974884e-02</leafValues></_>
        <_>
          <internalNodes>
            0 -1 494 -3.3960312139242887e-03</internalNodes>
          <leafValues>
            1.8836538493633270e-01 -8.6541511118412018e-02</leafValues></_>
        <_>
          <internalNodes>
            0 -1 8 -2.1645516157150269e-02</internalNodes>
          <leafValues>
            -2.3811435699462891e-01 7.6296985149383545e-02</leafValues></_>
        <_>
          <internalNodes>
            0 -1 971 -8.5526434704661369e-03</internalNodes>
          <leafValues>
            -2.1304832398891449e-01 6.4536884427070618e-02</leafValues></_>
        <_>
          <internalNodes>
            0 -1 116 -4.8337548971176147e-02</internalNodes>
          <leafValues>
            -7.8681188821792603e-01 8.4291594102978706e-03</leafValues></_>
        <_>
          <internalNodes>
            0 -1 1439 -1.7854612320661545e-02</internalNodes>
          <leafValues>
            -5.6382077932357788e-01 2.1548090502619743e-02</leafValues></_>
        <_>
          <internalNodes>
            0 -1 1411 -6.1584161594510078e-03</internalNodes>
          <leafValues>
            1.7027249932289124e-01 -7.9768650233745575e-02</leafValues></_>
        <_>
          <internalNodes>
            0 -1 1481 -9.9351350218057632e-03</internalNodes>
          <leafValues>
            2.0572027564048767e-01 -7.7807180583477020e-02</leafValues></_>
        <_>
          <internalNodes>
            0 -1 1680 -3.9873335510492325e-02</internalNodes>
          <leafValues>
            2.0113398134708405e-01 -8.2849487662315369e-02</leafValues></_>
        <_>
          <internalNodes>
            0 -1 1110 1.0917077958583832e-01</internalNodes>
          <leafValues>
            -2.9830481857061386e-02 4.3303507566452026e-01</leafValues></_>
        <_>
          <internalNodes>
            0 -1 1761 -2.0002834498882294e-02</internalNodes>
          <leafValues>
            2.6228085160255432e-01 -5.6122913956642151e-02</leafValues></_>
        <_>
          <internalNodes>
            0 -1 1278 -2.3437224328517914e-02</internalNodes>
          <leafValues>
            -5.9702068567276001e-01 2.2549092769622803e-02</leafValues></_>
        <_>
          <internalNodes>
            0 -1 1064 8.4894776344299316e-02</internalNodes>
          <leafValues>
            -3.9462365210056305e-02 3.8540506362915039e-01</leafValues></_>
        <_>
          <internalNodes>
            0 -1 1243 1.4880844950675964e-01</internalNodes>
          <leafValues>
            -4.1066817939281464e-02 3.6615970730781555e-01</leafValues></_>
        <_>
          <internalNodes>
            0 -1 955 -8.2682697102427483e-03</internalNodes>
          <leafValues>
            2.0533199608325958e-01 -7.5210325419902802e-02</leafValues></_>
        <_>
          <internalNodes>
            0 -1 69 -1.6983594745397568e-02</internalNodes>
          <leafValues>
            -6.1668074131011963e-01 2.0021550357341766e-02</leafValues></_>
        <_>
          <internalNodes>
            0 -1 1834 -7.7912989072501659e-03</internalNodes>
          <leafValues>
            -4.2463234066963196e-01 2.7828069403767586e-02</leafValues></_>
        <_>
          <internalNodes>
            0 -1 552 -1.0393131524324417e-03</internalNodes>
          <leafValues>
            1.4232216775417328e-01 -8.6167871952056885e-02</leafValues></_>
        <_>
          <internalNodes>
            0 -1 707 -5.4021999239921570e-03</internalNodes>
          <leafValues>
            1.5509399771690369e-01 -8.6867541074752808e-02</leafValues></_>
        <_>
          <internalNodes>
            0 -1 1240 -1.3818782754242420e-02</internalNodes>
          <leafValues>
            1.5492279827594757e-01 -9.5178633928298950e-02</leafValues></_>
        <_>
          <internalNodes>
            0 -1 696 -3.9154337719082832e-03</internalNodes>
          <leafValues>
            1.3968248665332794e-01 -1.0210037976503372e-01</leafValues></_>
        <_>
          <internalNodes>
            0 -1 272 -1.3040095567703247e-02</internalNodes>
          <leafValues>
            -2.2239774465560913e-01 5.9745501726865768e-02</leafValues></_>
        <_>
          <internalNodes>
            0 -1 223 -4.0294341742992401e-02</internalNodes>
          <leafValues>
            -5.9535491466522217e-01 2.1115114912390709e-02</leafValues></_>
        <_>
          <internalNodes>
            0 -1 1284 -5.8850124478340149e-03</internalNodes>
          <leafValues>
            2.3141893744468689e-01 -7.2754181921482086e-02</leafValues></_>
        <_>
          <internalNodes>
            0 -1 1690 -1.0580117814242840e-03</internalNodes>
          <leafValues>
            1.1827309429645538e-01 -1.3004326820373535e-01</leafValues></_>
        <_>
          <internalNodes>
            0 -1 1251 -6.6240085288882256e-03</internalNodes>
          <leafValues>
            1.5027523040771484e-01 -8.1221505999565125e-02</leafValues></_>
        <_>
          <internalNodes>
            0 -1 1953 -3.4004552289843559e-03</internalNodes>
          <leafValues>
            -4.2648679018020630e-01 3.0044572427868843e-02</leafValues></_>
        <_>
          <internalNodes>
            0 -1 1953 1.0292798979207873e-03</internalNodes>
          <leafValues>
            4.9714412540197372e-02 -2.3002441227436066e-01</leafValues></_>
        <_>
          <internalNodes>
            0 -1 863 -8.3039198070764542e-03</internalNodes>
          <leafValues>
            1.8512345850467682e-01 -6.7569673061370850e-02</leafValues></_>
        <_>
          <internalNodes>
            0 -1 742 2.1983552724123001e-02</internalNodes>
          <leafValues>
            -5.3647611290216446e-02 2.7903628349304199e-01</leafValues></_>
        <_>
          <internalNodes>
            0 -1 663 6.2214373610913754e-04</internalNodes>
          <leafValues>
            8.4859222173690796e-02 -1.5709570050239563e-01</leafValues></_>
        <_>
          <internalNodes>
            0 -1 404 -2.4788793176412582e-02</internalNodes>
          <leafValues>
            -8.9984840154647827e-01 1.1957481503486633e-02</leafValues></_>
        <_>
          <internalNodes>
            0 -1 1872 -1.1680127121508121e-02</internalNodes>
          <leafValues>
            2.2759293019771576e-01 -5.9816703200340271e-02</leafValues></_>
        <_>
          <internalNodes>
            0 -1 183 -1.1596320196986198e-02</internalNodes>
          <leafValues>
            1.6095152497291565e-01 -8.3277516067028046e-02</leafValues></_>
        <_>
          <internalNodes>
            0 -1 213 -5.9952205047011375e-03</internalNodes>
          <leafValues>
            -4.5409309864044189e-01 2.9396137222647667e-02</leafValues></_>
        <_>
          <internalNodes>
            0 -1 1872 7.4692661873996258e-03</internalNodes>
          <leafValues>
            -6.3390180468559265e-02 2.0979002118110657e-01</leafValues></_>
        <_>
          <internalNodes>
            0 -1 1136 4.4003949733451009e-04</internalNodes>
          <leafValues>
            6.6402412950992584e-02 -1.8853408098220825e-01</leafValues></_>
        <_>
          <internalNodes>
            0 -1 23 -6.3015276193618774e-01</internalNodes>
          <leafValues>
            -8.7574464082717896e-01 1.2218245305120945e-02</leafValues></_>
        <_>
          <internalNodes>
            0 -1 1962 -2.8200112283229828e-03</internalNodes>
          <leafValues>
            -3.1693744659423828e-01 3.7185113877058029e-02</leafValues></_>
        <_>
          <internalNodes>
            0 -1 940 3.0444789677858353e-02</internalNodes>
          <leafValues>
            1.6614364460110664e-02 -7.0048558712005615e-01</leafValues></_>
        <_>
          <internalNodes>
            0 -1 413 4.0714483475312591e-04</internalNodes>
          <leafValues>
            5.8476377278566360e-02 -1.9116513431072235e-01</leafValues></_>
        <_>
          <internalNodes>
            0 -1 125 -6.8597393110394478e-03</internalNodes>
          <leafValues>
            1.6329148411750793e-01 -7.4276089668273926e-02</leafValues></_>
        <_>
          <internalNodes>
            0 -1 145 9.5161572098731995e-03</internalNodes>
          <leafValues>
            -7.2395518422126770e-02 2.2706101834774017e-01</leafValues></_>
        <_>
          <internalNodes>
            0 -1 1129 -2.2464208304882050e-03</internalNodes>
          <leafValues>
            1.3393028080463409e-01 -8.9206583797931671e-02</leafValues></_>
        <_>
          <internalNodes>
            0 -1 1052 -5.8487607166171074e-03</internalNodes>
          <leafValues>
            1.7570526897907257e-01 -6.8140648305416107e-02</leafValues></_>
        <_>
          <internalNodes>
            0 -1 1053 9.6046552062034607e-03</internalNodes>
          <leafValues>
            -6.6143110394477844e-02 2.1512766182422638e-01</leafValues></_>
        <_>
          <internalNodes>
            0 -1 1456 -3.6088281776756048e-03</internalNodes>
          <leafValues>
            1.1330758780241013e-01 -1.1343140900135040e-01</leafValues></_>
        <_>
          <internalNodes>
            0 -1 1930 7.9724652459844947e-04</internalNodes>
          <leafValues>
            6.0435537248849869e-02 -2.0640853047370911e-01</leafValues></_>
        <_>
          <internalNodes>
            0 -1 1573 -6.0474500060081482e-03</internalNodes>
          <leafValues>
            1.3415190577507019e-01 -9.1235138475894928e-02</leafValues></_>
        <_>
          <internalNodes>
            0 -1 1186 -5.1058493554592133e-03</internalNodes>
          <leafValues>
            -6.1147904396057129e-01 2.0637916401028633e-02</leafValues></_>
        <_>
          <internalNodes>
            0 -1 1315 -1.4119997620582581e-02</internalNodes>
          <leafValues>
            1.5913476049900055e-01 -8.0368742346763611e-02</leafValues></_>
        <_>
          <internalNodes>
            0 -1 1443 -1.0412618517875671e-02</internalNodes>
          <leafValues>
            1.4633792638778687e-01 -9.0661168098449707e-02</leafValues></_>
        <_>
          <internalNodes>
            0 -1 1182 2.1411238610744476e-01</internalNodes>
          <leafValues>
            -4.1144542396068573e-02 3.2020112872123718e-01</leafValues></_>
        <_>
          <internalNodes>
            0 -1 917 -4.4651003554463387e-03</internalNodes>
          <leafValues>
            1.4619475603103638e-01 -8.5277505218982697e-02</leafValues></_>
        <_>
          <internalNodes>
            0 -1 266 -6.2559288926422596e-04</internalNodes>
          <leafValues>
            -2.3972187936306000e-01 5.3563967347145081e-02</leafValues></_>
        <_>
          <internalNodes>
            0 -1 1517 2.0887096226215363e-01</internalNodes>
          <leafValues>
            -2.6729654520750046e-02 4.9627703428268433e-01</leafValues></_>
        <_>
          <internalNodes>
            0 -1 1956 1.1776799801737070e-03</internalNodes>
          <leafValues>
            4.6396501362323761e-02 -3.0080980062484741e-01</leafValues></_>
        <_>
          <internalNodes>
            0 -1 1479 2.2091837599873543e-03</internalNodes>
          <leafValues>
            -1.0386511683464050e-01 1.1567032337188721e-01</leafValues></_>
        <_>
          <internalNodes>
            0 -1 698 -1.5242731198668480e-02</internalNodes>
          <leafValues>
            1.5487185120582581e-01 -8.9420653879642487e-02</leafValues></_>
        <_>
          <internalNodes>
            0 -1 943 -4.0864953771233559e-03</internalNodes>
          <leafValues>
            1.7633180320262909e-01 -8.1344492733478546e-02</leafValues></_>
        <_>
          <internalNodes>
            0 -1 1881 3.3393391640856862e-04</internalNodes>
          <leafValues>
            6.8019784986972809e-02 -1.7849209904670715e-01</leafValues></_>
        <_>
          <internalNodes>
            0 -1 1819 4.5809001312591136e-04</internalNodes>
          <leafValues>
            6.8111419677734375e-02 -1.8469247221946716e-01</leafValues></_>
        <_>
          <internalNodes>
            0 -1 1840 -4.0144594386219978e-03</internalNodes>
          <leafValues>
            1.6578121483325958e-01 -7.9498961567878723e-02</leafValues></_>
        <_>
          <internalNodes>
            0 -1 1855 3.6565936170518398e-03</internalNodes>
          <leafValues>
            -7.3941141366958618e-02 2.2791533172130585e-01</leafValues></_>
        <_>
          <internalNodes>
            0 -1 1825 7.5222000479698181e-02</internalNodes>
          <leafValues>
            3.7076227366924286e-02 -4.1583955287933350e-01</leafValues></_>
        <_>
          <internalNodes>
            0 -1 944 3.7231000605970621e-03</internalNodes>
          <leafValues>
            -8.8494539260864258e-02 1.4532628655433655e-01</leafValues></_>
        <_>
          <internalNodes>
            0 -1 242 -4.5698016881942749e-02</internalNodes>
          <leafValues>
            -7.7930808067321777e-01 1.6217632219195366e-02</leafValues></_>
        <_>
          <internalNodes>
            0 -1 235 -5.0979051738977432e-03</internalNodes>
          <leafValues>
            1.4362859725952148e-01 -8.8058024644851685e-02</leafValues></_>
        <_>
          <internalNodes>
            0 -1 237 -3.3292256295681000e-02</internalNodes>
          <leafValues>
            -5.9504646062850952e-01 2.2781597450375557e-02</leafValues></_>
        <_>
          <internalNodes>
            0 -1 1843 -2.4684168398380280e-02</internalNodes>
          <leafValues>
            -6.4572638273239136e-01 1.4355141669511795e-02</leafValues></_>
        <_>
          <internalNodes>
            0 -1 967 3.9776513585820794e-04</internalNodes>
          <leafValues>
            7.1855992078781128e-02 -1.5399888157844543e-01</leafValues></_>
        <_>
          <internalNodes>
            0 -1 868 4.3872380629181862e-03</internalNodes>
          <leafValues>
            -6.9033145904541016e-02 1.7173773050308228e-01</leafValues></_>
        <_>
          <internalNodes>
            0 -1 985 -1.8421152606606483e-02</internalNodes>
          <leafValues>
            1.9852097332477570e-01 -5.7824775576591492e-02</leafValues></_>
        <_>
          <internalNodes>
            0 -1 1364 -2.2310446947813034e-03</internalNodes>
          <leafValues>
            1.3551807403564453e-01 -9.0689748525619507e-02</leafValues></_>
        <_>
          <internalNodes>
            0 -1 641 2.5696352124214172e-02</internalNodes>
          <leafValues>
            -4.7971773892641068e-02 2.8057780861854553e-01</leafValues></_>
        <_>
          <internalNodes>
            0 -1 1235 8.0818533897399902e-03</internalNodes>
          <leafValues>
            -5.7503607124090195e-02 2.0201770961284637e-01</leafValues></_>
        <_>
          <internalNodes>
            0 -1 326 4.5654371380805969e-01</internalNodes>
          <leafValues>
            -3.5554312169551849e-02 3.5429760813713074e-01</leafValues></_>
        <_>
          <internalNodes>
            0 -1 1464 1.3505932874977589e-03</internalNodes>
          <leafValues>
            7.6638169586658478e-02 -1.5359608829021454e-01</leafValues></_>
        <_>
          <internalNodes>
            0 -1 1629 -7.2178686968982220e-03</internalNodes>
          <leafValues>
            2.0423819124698639e-01 -6.4058355987071991e-02</leafValues></_>
        <_>
          <internalNodes>
            0 -1 628 -1.4944002963602543e-02</internalNodes>
          <leafValues>
            1.3878282904624939e-01 -8.8054947555065155e-02</leafValues></_>
        <_>
          <internalNodes>
            0 -1 165 -8.1625310704112053e-03</internalNodes>
          <leafValues>
            1.4088867604732513e-01 -8.9700587093830109e-02</leafValues></_>
        <_>
          <internalNodes>
            0 -1 180 -9.9901193752884865e-03</internalNodes>
          <leafValues>
            -5.6717807054519653e-01 2.2327328100800514e-02</leafValues></_>
        <_>
          <internalNodes>
            0 -1 1050 3.1408772338181734e-04</internalNodes>
          <leafValues>
            6.7382730543613434e-02 -1.6391398012638092e-01</leafValues></_>
        <_>
          <internalNodes>
            0 -1 1510 -3.1637579202651978e-02</internalNodes>
          <leafValues>
            -6.6337430477142334e-01 1.6386650502681732e-02</leafValues></_>
        <_>
          <internalNodes>
            0 -1 1011 -5.0740092992782593e-03</internalNodes>
          <leafValues>
            -5.8771193027496338e-01 1.5183915384113789e-02</leafValues></_>
        <_>
          <internalNodes>
            0 -1 875 -6.1969563364982605e-02</internalNodes>
          <leafValues>
            -9.0824007987976074e-01 1.0223833844065666e-02</leafValues></_>
        <_>
          <internalNodes>
            0 -1 377 -1.0317757725715637e-02</internalNodes>
          <leafValues>
            1.3383497297763824e-01 -8.4622204303741455e-02</leafValues></_>
        <_>
          <internalNodes>
            0 -1 441 8.8435653597116470e-03</internalNodes>
          <leafValues>
            -7.3621757328510284e-02 1.8992865085601807e-01</leafValues></_>
        <_>
          <internalNodes>
            0 -1 254 -6.3896412029862404e-05</internalNodes>
          <leafValues>
            1.0944350063800812e-01 -1.1463098227977753e-01</leafValues></_>
        <_>
          <internalNodes>
            0 -1 533 4.0559691842645407e-04</internalNodes>
          <leafValues>
            6.3904523849487305e-02 -1.8632233142852783e-01</leafValues></_></weakClassifiers></_>
    <!-- stage 6 -->
    <_>
      <maxWeakCount>100</maxWeakCount>
      <stageThreshold>-1.3561609983444214e+00</stageThreshold>
      <weakClassifiers>
        <_>
          <internalNodes>
            0 -1 672 2.3434145748615265e-01</internalNodes>
          <leafValues>
            -3.4147208929061890e-01 2.0973348617553711e-01</leafValues></_>
        <_>
          <internalNodes>
            0 -1 299 8.7178265675902367e-03</internalNodes>
          <leafValues>
            -9.9236071109771729e-02 1.9249528646469116e-01</leafValues></_>
        <_>
          <internalNodes>
            0 -1 267 3.3464928856119514e-04</internalNodes>
          <leafValues>
            7.8143201768398285e-02 -2.0082379877567291e-01</leafValues></_>
        <_>
          <internalNodes>
            0 -1 1895 -1.8565058708190918e-02</internalNodes>
          <leafValues>
            -1.8667206168174744e-01 7.6998904347419739e-02</leafValues></_>
        <_>
          <internalNodes>
            0 -1 1936 1.2556776404380798e-02</internalNodes>
          <leafValues>
            9.2655636370182037e-02 -2.0248970389366150e-01</leafValues></_>
        <_>
          <internalNodes>
            0 -1 365 -5.3020296618342400e-03</internalNodes>
          <leafValues>
            1.6865150630474091e-01 -8.4972560405731201e-02</leafValues></_>
        <_>
          <internalNodes>
            0 -1 172 3.2278347015380859e-01</internalNodes>
          <leafValues>
            3.1206451356410980e-02 -8.0811709165573120e-01</leafValues></_>
        <_>
          <internalNodes>
            0 -1 635 -2.3602969013154507e-03</internalNodes>
          <leafValues>
            1.5365098416805267e-01 -1.2657535076141357e-01</leafValues></_>
        <_>
          <internalNodes>
            0 -1 104 3.9039214607328176e-04</internalNodes>
          <leafValues>
            6.3929408788681030e-02 -2.0857371389865875e-01</leafValues></_>
        <_>
          <internalNodes>
            0 -1 80 6.7161465995013714e-04</internalNodes>
          <leafValues>
            8.5688412189483643e-02 -2.2228206694126129e-01</leafValues></_>
        <_>
          <internalNodes>
            0 -1 1852 -4.1863638907670975e-03</internalNodes>
          <leafValues>
            1.6955219209194183e-01 -8.8288575410842896e-02</leafValues></_>
        <_>
          <internalNodes>
            0 -1 127 -5.3063612431287766e-03</internalNodes>
          <leafValues>
            1.9265466928482056e-01 -7.2050660848617554e-02</leafValues></_>
        <_>
          <internalNodes>
            0 -1 829 1.0419853031635284e-01</internalNodes>
          <leafValues>
            -7.6185770332813263e-02 2.0827987790107727e-01</leafValues></_>
        <_>
          <internalNodes>
            0 -1 903 4.1572353243827820e-01</internalNodes>
          <leafValues>
            -3.3924218267202377e-02 4.4397869706153870e-01</leafValues></_>
        <_>
          <internalNodes>
            0 -1 1857 -2.3172441869974136e-02</internalNodes>
          <leafValues>
            2.9185754060745239e-01 -5.1986973732709885e-02</leafValues></_>
        <_>
          <internalNodes>
            0 -1 1806 -7.5161587446928024e-03</internalNodes>
          <leafValues>
            2.0795412361621857e-01 -7.1312732994556427e-02</leafValues></_>
        <_>
          <internalNodes>
            0 -1 1512 -4.3724589049816132e-02</internalNodes>
          <leafValues>
            1.9993515312671661e-01 -6.9777570664882660e-02</leafValues></_>
        <_>
          <internalNodes>
            0 -1 945 5.0131902098655701e-02</internalNodes>
          <leafValues>
            -5.3575359284877777e-02 2.3816505074501038e-01</leafValues></_>
        <_>
          <internalNodes>
            0 -1 19 -3.2076865434646606e-02</internalNodes>
          <leafValues>
            4.3301409482955933e-01 -4.0979657322168350e-02</leafValues></_>
        <_>
          <internalNodes>
            0 -1 1371 -2.6937276124954224e-02</internalNodes>
          <leafValues>
            -6.5374076366424561e-01 2.4825235828757286e-02</leafValues></_>
        <_>
          <internalNodes>
            0 -1 1685 -6.7059751600027084e-03</internalNodes>
          <leafValues>
            1.7096880078315735e-01 -7.9468391835689545e-02</leafValues></_>
        <_>
          <internalNodes>
            0 -1 1665 5.6278342381119728e-03</internalNodes>
          <leafValues>
            -7.9406380653381348e-02 1.7581284046173096e-01</leafValues></_>
        <_>
          <internalNodes>
            0 -1 263 -5.7667889632284641e-04</internalNodes>
          <leafValues>
            -1.8962351977825165e-01 6.4733043313026428e-02</leafValues></_>
        <_>
          <internalNodes>
            0 -1 761 -3.4198090434074402e-03</internalNodes>
          <leafValues>
            1.3820107281208038e-01 -9.3906857073307037e-02</leafValues></_>
        <_>
          <internalNodes>
            0 -1 776 3.3293763408437371e-04</internalNodes>
          <leafValues>
            7.8685134649276733e-02 -1.6707982122898102e-01</leafValues></_>
        <_>
          <internalNodes>
            0 -1 537 -4.3112006969749928e-03</internalNodes>
          <leafValues>
            1.4866046607494354e-01 -9.1582819819450378e-02</leafValues></_>
        <_>
          <internalNodes>
            0 -1 972 3.6783507675863802e-04</internalNodes>
          <leafValues>
            7.7309988439083099e-02 -1.6861180961132050e-01</leafValues></_>
        <_>
          <internalNodes>
            0 -1 731 -3.2328087836503983e-03</internalNodes>
          <leafValues>
            1.5820449590682983e-01 -8.0285049974918365e-02</leafValues></_>
        <_>
          <internalNodes>
            0 -1 1779 2.3074034601449966e-02</internalNodes>
          <leafValues>
            -4.5072358101606369e-02 2.5123092532157898e-01</leafValues></_>
        <_>
          <internalNodes>
            0 -1 978 4.7583661973476410e-02</internalNodes>
          <leafValues>
            -4.6819809824228287e-02 2.9030877351760864e-01</leafValues></_>
        <_>
          <internalNodes>
            0 -1 1154 -2.7542877942323685e-03</internalNodes>
          <leafValues>
            1.2356648594141006e-01 -1.2025716900825500e-01</leafValues></_>
        <_>
          <internalNodes>
            0 -1 211 -2.7200382202863693e-02</internalNodes>
          <leafValues>
            -4.4757291674613953e-01 2.5891395285725594e-02</leafValues></_>
        <_>
          <internalNodes>
            0 -1 1116 -1.3780970126390457e-02</internalNodes>
          <leafValues>
            1.6038188338279724e-01 -7.2099909186363220e-02</leafValues></_>
        <_>
          <internalNodes>
            0 -1 1467 5.2510219393298030e-04</internalNodes>
          <leafValues>
            6.0262043029069901e-02 -2.0386527478694916e-01</leafValues></_>
        <_>
          <internalNodes>
            0 -1 1424 5.8797571808099747e-02</internalNodes>
          <leafValues>
            -6.1647213995456696e-02 2.0442141592502594e-01</leafValues></_>
        <_>
          <internalNodes>
            0 -1 809 -8.5083823651075363e-03</internalNodes>
          <leafValues>
            1.4579972624778748e-01 -9.4642259180545807e-02</leafValues></_>
        <_>
          <internalNodes>
            0 -1 1650 -5.3349989466369152e-03</internalNodes>
          <leafValues>
            1.5110161900520325e-01 -7.7327705919742584e-02</leafValues></_>
        <_>
          <internalNodes>
            0 -1 1648 9.2166438698768616e-03</internalNodes>
          <leafValues>
            -5.6960653513669968e-02 2.3135834932327271e-01</leafValues></_>
        <_>
          <internalNodes>
            0 -1 462 -2.6907366700470448e-03</internalNodes>
          <leafValues>
            1.2932153046131134e-01 -8.9611306786537170e-02</leafValues></_>
        <_>
          <internalNodes>
            0 -1 433 5.5550190154463053e-04</internalNodes>
          <leafValues>
            9.2142805457115173e-02 -1.3624736666679382e-01</leafValues></_>
        <_>
          <internalNodes>
            0 -1 1237 -2.5115892291069031e-02</internalNodes>
          <leafValues>
            -5.3882795572280884e-01 2.2356702014803886e-02</leafValues></_>
        <_>
          <internalNodes>
            0 -1 1311 -2.6731728576123714e-04</internalNodes>
          <leafValues>
            1.1375090479850769e-01 -1.2373976409435272e-01</leafValues></_>
        <_>
          <internalNodes>
            0 -1 1542 5.1556923426687717e-04</internalNodes>
          <leafValues>
            6.0697138309478760e-02 -1.9879087805747986e-01</leafValues></_>
        <_>
          <internalNodes>
            0 -1 947 -5.9986591339111328e-02</internalNodes>
          <leafValues>
            1.6710910201072693e-01 -7.0856153964996338e-02</leafValues></_>
        <_>
          <internalNodes>
            0 -1 197 -3.6902517080307007e-02</internalNodes>
          <leafValues>
            -7.0442086458206177e-01 1.4881850220263004e-02</leafValues></_>
        <_>
          <internalNodes>
            0 -1 1561 -2.1607588976621628e-02</internalNodes>
          <leafValues>
            1.5175747871398926e-01 -7.7542111277580261e-02</leafValues></_>
        <_>
          <internalNodes>
            0 -1 1189 -1.1889207176864147e-02</internalNodes>
          <leafValues>
            -3.4727883338928223e-01 3.6353874951601028e-02</leafValues></_>
        <_>
          <internalNodes>
            0 -1 1728 1.0073622688651085e-03</internalNodes>
          <leafValues>
            7.9704307019710541e-02 -1.4164279401302338e-01</leafValues></_>
        <_>
          <internalNodes>
            0 -1 245 -1.0724529856815934e-03</internalNodes>
          <leafValues>
            1.1027084290981293e-01 -1.0697658360004425e-01</leafValues></_>
        <_>
          <internalNodes>
            0 -1 201 -2.0415466278791428e-03</internalNodes>
          <leafValues>
            1.5142865478992462e-01 -7.9034298658370972e-02</leafValues></_>
        <_>
          <internalNodes>
            0 -1 358 -2.8164065442979336e-03</internalNodes>
          <leafValues>
            1.3425193727016449e-01 -8.4913313388824463e-02</leafValues></_>
        <_>
          <internalNodes>
            0 -1 6 -1.6254529356956482e-02</internalNodes>
          <leafValues>
            -2.2971749305725098e-01 5.2996508777141571e-02</leafValues></_>
        <_>
          <internalNodes>
            0 -1 502 -3.0397940427064896e-03</internalNodes>
          <leafValues>
            1.3812345266342163e-01 -9.0057604014873505e-02</leafValues></_>
        <_>
          <internalNodes>
            0 -1 1209 2.7801727876067162e-02</internalNodes>
          <leafValues>
            -2.4503814056515694e-02 4.2895752191543579e-01</leafValues></_>
        <_>
          <internalNodes>
            0 -1 490 -1.1232972145080566e-02</internalNodes>
          <leafValues>
            1.6372783482074738e-01 -7.1239709854125977e-02</leafValues></_>
        <_>
          <internalNodes>
            0 -1 580 7.1135789155960083e-02</internalNodes>
          <leafValues>
            -6.5133042633533478e-02 1.8255706131458282e-01</leafValues></_>
        <_>
          <internalNodes>
            0 -1 42 -3.6024028062820435e-01</internalNodes>
          <leafValues>
            -7.2746205329895020e-01 1.4659235253930092e-02</leafValues></_>
        <_>
          <internalNodes>
            0 -1 779 -7.3805572465062141e-03</internalNodes>
          <leafValues>
            1.7173805832862854e-01 -6.9934040307998657e-02</leafValues></_>
        <_>
          <internalNodes>
            0 -1 542 9.1594178229570389e-03</internalNodes>
          <leafValues>
            -6.5865948796272278e-02 1.8438149988651276e-01</leafValues></_>
        <_>
          <internalNodes>
            0 -1 1722 1.4847968704998493e-02</internalNodes>
          <leafValues>
            -5.0087757408618927e-02 2.3191772401332855e-01</leafValues></_>
        <_>
          <internalNodes>
            0 -1 1676 -1.9534952007234097e-03</internalNodes>
          <leafValues>
            1.5859401226043701e-01 -8.0598123371601105e-02</leafValues></_>
        <_>
          <internalNodes>
            0 -1 1762 -2.3364035878330469e-03</internalNodes>
          <leafValues>
            1.3403628766536713e-01 -8.3893842995166779e-02</leafValues></_>
        <_>
          <internalNodes>
            0 -1 3 -1.5965199097990990e-02</internalNodes>
          <leafValues>
            -4.2016214132308960e-01 2.5611033663153648e-02</leafValues></_>
        <_>
          <internalNodes>
            0 -1 3 3.8018586928956211e-04</internalNodes>
          <leafValues>
            8.4169544279575348e-02 -1.2693910300731659e-01</leafValues></_>
        <_>
          <internalNodes>
            0 -1 90 1.0640437714755535e-02</internalNodes>
          <leafValues>
            -5.5653832852840424e-02 2.0082622766494751e-01</leafValues></_>
        <_>
          <internalNodes>
            0 -1 1459 -2.6182446628808975e-02</internalNodes>
          <leafValues>
            -6.2783670425415039e-01 1.5680609270930290e-02</leafValues></_>
        <_>
          <internalNodes>
            0 -1 1187 -1.7149042338132858e-02</internalNodes>
          <leafValues>
            1.5965905785560608e-01 -6.9113403558731079e-02</leafValues></_>
        <_>
          <internalNodes>
            0 -1 1265 1.1054818332195282e-01</internalNodes>
          <leafValues>
            -3.8469951599836349e-02 3.8991767168045044e-01</leafValues></_>
        <_>
          <internalNodes>
            0 -1 1416 1.1490772664546967e-01</internalNodes>
          <leafValues>
            -3.9471652358770370e-02 2.9247334599494934e-01</leafValues></_>
        <_>
          <internalNodes>
            0 -1 1721 7.3466040194034576e-02</internalNodes>
          <leafValues>
            -1.7359636723995209e-02 6.5290009975433350e-01</leafValues></_>
        <_>
          <internalNodes>
            0 -1 1910 -4.6084811910986900e-03</internalNodes>
          <leafValues>
            -3.2552736997604370e-01 3.7475436925888062e-02</leafValues></_>
        <_>
          <internalNodes>
            0 -1 1426 -7.6807383447885513e-03</internalNodes>
          <leafValues>
            1.3922479748725891e-01 -8.4754697978496552e-02</leafValues></_>
        <_>
          <internalNodes>
            0 -1 1405 -1.8720628321170807e-01</internalNodes>
          <leafValues>
            -5.1870208978652954e-01 2.1653806790709496e-02</leafValues></_>
        <_>
          <internalNodes>
            0 -1 139 5.4558494593948126e-04</internalNodes>
          <leafValues>
            5.5629968643188477e-02 -1.9606824219226837e-01</leafValues></_>
        <_>
          <internalNodes>
            0 -1 1140 -1.8618528265506029e-03</internalNodes>
          <leafValues>
            1.2825579941272736e-01 -8.6154207587242126e-02</leafValues></_>
        <_>
          <internalNodes>
            0 -1 1051 1.6132704331539571e-04</internalNodes>
          <leafValues>
            7.9372256994247437e-02 -1.4656089246273041e-01</leafValues></_>
        <_>
          <internalNodes>
            0 -1 884 -6.4709009602665901e-03</internalNodes>
          <leafValues>
            1.3487657904624939e-01 -8.3948373794555664e-02</leafValues></_>
        <_>
          <internalNodes>
            0 -1 1757 -2.4678936228156090e-02</internalNodes>
          <leafValues>
            -6.5242856740951538e-01 1.7145823687314987e-02</leafValues></_>
        <_>
          <internalNodes>
            0 -1 1089 3.6804780364036560e-02</internalNodes>
          <leafValues>
            -2.6640387251973152e-02 4.4138491153717041e-01</leafValues></_>
        <_>
          <internalNodes>
            0 -1 1418 -1.3186079740989953e-04</internalNodes>
          <leafValues>
            1.0393042862415314e-01 -1.0023204982280731e-01</leafValues></_>
        <_>
          <internalNodes>
            0 -1 1302 7.8056339407339692e-04</internalNodes>
          <leafValues>
            5.7414151728153229e-02 -1.8596878647804260e-01</leafValues></_>
        <_>
          <internalNodes>
            0 -1 435 -4.2855627834796906e-03</internalNodes>
          <leafValues>
            1.8284274637699127e-01 -5.9784192591905594e-02</leafValues></_>
        <_>
          <internalNodes>
            0 -1 321 -2.8692845255136490e-02</internalNodes>
          <leafValues>
            -7.0287996530532837e-01 1.6114154830574989e-02</leafValues></_>
        <_>
          <internalNodes>
            0 -1 451 -1.0831991676241159e-03</internalNodes>
          <leafValues>
            1.1013182997703552e-01 -1.0167846083641052e-01</leafValues></_>
        <_>
          <internalNodes>
            0 -1 0 -6.7816488444805145e-04</internalNodes>
          <leafValues>
            -2.2929710149765015e-01 5.0843965262174606e-02</leafValues></_>
        <_>
          <internalNodes>
            0 -1 1138 2.9166048625484109e-04</internalNodes>
          <leafValues>
            6.8559162318706512e-02 -1.6086418926715851e-01</leafValues></_>
        <_>
          <internalNodes>
            0 -1 1889 5.2771061658859253e-02</internalNodes>
          <leafValues>
            1.9818902015686035e-02 -4.8742333054542542e-01</leafValues></_>
        <_>
          <internalNodes>
            0 -1 1446 -7.7734533697366714e-03</internalNodes>
          <leafValues>
            1.5163940191268921e-01 -6.8240433931350708e-02</leafValues></_>
        <_>
          <internalNodes>
            0 -1 1168 -1.0340750217437744e-01</internalNodes>
          <leafValues>
            -7.7316176891326904e-01 1.3334162533283234e-02</leafValues></_>
        <_>
          <internalNodes>
            0 -1 1813 -1.2150418013334274e-02</internalNodes>
          <leafValues>
            -5.3657865524291992e-01 1.6032040119171143e-02</leafValues></_>
        <_>
          <internalNodes>
            0 -1 1410 -2.9856367036700249e-03</internalNodes>
          <leafValues>
            1.3868716359138489e-01 -7.3985047638416290e-02</leafValues></_>
        <_>
          <internalNodes>
            0 -1 1673 -1.8313112668693066e-03</internalNodes>
          <leafValues>
            1.1682316660881042e-01 -8.7162904441356659e-02</leafValues></_>
        <_>
          <internalNodes>
            0 -1 1720 4.9484799092169851e-05</internalNodes>
          <leafValues>
            -1.0595636814832687e-01 1.1303934454917908e-01</leafValues></_>
        <_>
          <internalNodes>
            0 -1 1726 -8.5573364049196243e-03</internalNodes>
          <leafValues>
            1.8386338651180267e-01 -5.9841614216566086e-02</leafValues></_>
        <_>
          <internalNodes>
            0 -1 1926 5.2637193584814668e-04</internalNodes>
          <leafValues>
            6.3072159886360168e-02 -1.7279523611068726e-01</leafValues></_>
        <_>
          <internalNodes>
            0 -1 759 2.4816257879137993e-02</internalNodes>
          <leafValues>
            -4.6345416456460953e-02 2.4155826866626740e-01</leafValues></_>
        <_>
          <internalNodes>
            0 -1 1925 -2.4638706236146390e-04</internalNodes>
          <leafValues>
            -1.5012462437152863e-01 7.1069568395614624e-02</leafValues></_>
        <_>
          <internalNodes>
            0 -1 853 -3.1699739396572113e-02</internalNodes>
          <leafValues>
            -3.5891634225845337e-01 2.9062394052743912e-02</leafValues></_>
        <_>
          <internalNodes>
            0 -1 1236 -8.2685891538858414e-03</internalNodes>
          <leafValues>
            1.5636429190635681e-01 -6.9617174565792084e-02</leafValues></_>
        <_>
          <internalNodes>
            0 -1 384 2.7891409397125244e-01</internalNodes>
          <leafValues>
            -1.8341667950153351e-02 6.0510009527206421e-01</leafValues></_></weakClassifiers></_>
    <!-- stage 7 -->
    <_>
      <maxWeakCount>100</maxWeakCount>
      <stageThreshold>-1.2551746368408203e+00</stageThreshold>
      <weakClassifiers>
        <_>
          <internalNodes>
            0 -1 290 1.4099740982055664e-01</internalNodes>
          <leafValues>
            -4.1061109304428101e-01 -9.8913349211215973e-02</leafValues></_>
        <_>
          <internalNodes>
            0 -1 230 5.7575665414333344e-04</internalNodes>
          <leafValues>
            5.2405040711164474e-02 -2.1303164958953857e-01</leafValues></_>
        <_>
          <internalNodes>
            0 -1 88 -3.2138332724571228e-02</internalNodes>
          <leafValues>
            -3.0391359329223633e-01 3.7570379674434662e-02</leafValues></_>
        <_>
          <internalNodes>
            0 -1 88 -3.2082419842481613e-02</internalNodes>
          <leafValues>
            4.9177369475364685e-01 -2.9910853481851518e-04</leafValues></_>
        <_>
          <internalNodes>
            0 -1 88 -3.2138332724571228e-02</internalNodes>
          <leafValues>
            -4.6344202756881714e-01 9.7612261015456170e-05</leafValues></_>
        <_>
          <internalNodes>
            0 -1 170 4.1502695530653000e-03</internalNodes>
          <leafValues>
            1.2280846387147903e-01 -1.3938191533088684e-01</leafValues></_>
        <_>
          <internalNodes>
            0 -1 239 3.3455825177952647e-04</internalNodes>
          <leafValues>
            6.0670774430036545e-02 -2.2958324849605560e-01</leafValues></_>
        <_>
          <internalNodes>
            0 -1 129 -3.6028972826898098e-03</internalNodes>
          <leafValues>
            1.4378952980041504e-01 -9.1060303151607513e-02</leafValues></_>
        <_>
          <internalNodes>
            0 -1 330 1.1905128136277199e-02</internalNodes>
          <leafValues>
            -6.3435867428779602e-02 2.0497941970825195e-01</leafValues></_>
        <_>
          <internalNodes>
            0 -1 381 -1.3729248894378543e-03</internalNodes>
          <leafValues>
            1.4697068929672241e-01 -9.3849018216133118e-02</leafValues></_>
        <_>
          <internalNodes>
            0 -1 627 1.2457730248570442e-02</internalNodes>
          <leafValues>
            -6.2341265380382538e-02 2.0826998353004456e-01</leafValues></_>
        <_>
          <internalNodes>
            0 -1 817 -2.8468635864555836e-03</internalNodes>
          <leafValues>
            1.3996857404708862e-01 -8.6119815707206726e-02</leafValues></_>
        <_>
          <internalNodes>
            0 -1 1698 2.0175565034151077e-02</internalNodes>
          <leafValues>
            -5.0484769046306610e-02 2.3922453820705414e-01</leafValues></_>
        <_>
          <internalNodes>
            0 -1 1705 -5.4334299638867378e-03</internalNodes>
          <leafValues>
            1.6315236687660217e-01 -9.3970790505409241e-02</leafValues></_>
        <_>
          <internalNodes>
            0 -1 1918 5.5343832354992628e-04</internalNodes>
          <leafValues>
            5.4677251726388931e-02 -2.4506311118602753e-01</leafValues></_>
        <_>
          <internalNodes>
            0 -1 25 5.3045403957366943e-01</internalNodes>
          <leafValues>
            -2.9758520424365997e-02 5.1658642292022705e-01</leafValues></_>
        <_>
          <internalNodes>
            0 -1 1618 5.0568301230669022e-03</internalNodes>
          <leafValues>
            -7.0406332612037659e-02 1.6525927186012268e-01</leafValues></_>
        <_>
          <internalNodes>
            0 -1 1918 -5.0319568254053593e-04</internalNodes>
          <leafValues>
            -2.4291412532329559e-01 4.7327149659395218e-02</leafValues></_>
        <_>
          <internalNodes>
            0 -1 706 -1.5604337677359581e-03</internalNodes>
          <leafValues>
            1.4630113542079926e-01 -8.6926996707916260e-02</leafValues></_>
        <_>
          <internalNodes>
            0 -1 960 -4.5743072405457497e-03</internalNodes>
          <leafValues>
            1.7245781421661377e-01 -6.8861372768878937e-02</leafValues></_>
        <_>
          <internalNodes>
            0 -1 216 -1.5626616775989532e-02</internalNodes>
          <leafValues>
            1.3904097676277161e-01 -8.0896757543087006e-02</leafValues></_>
        <_>
          <internalNodes>
            0 -1 390 2.8620974626392126e-03</internalNodes>
          <leafValues>
            -8.9682057499885559e-02 1.3131205737590790e-01</leafValues></_>
        <_>
          <internalNodes>
            0 -1 667 -2.9898688197135925e-02</internalNodes>
          <leafValues>
            -4.4695857167243958e-01 3.0254624783992767e-02</leafValues></_>
        <_>
          <internalNodes>
            0 -1 751 -3.8023821543902159e-03</internalNodes>
          <leafValues>
            1.4927470684051514e-01 -7.7968314290046692e-02</leafValues></_>
        <_>
          <internalNodes>
            0 -1 70 1.1634380817413330e+00</internalNodes>
          <leafValues>
            -3.0485635623335838e-02 3.9423561096191406e-01</leafValues></_>
        <_>
          <internalNodes>
            0 -1 1516 -4.0771059691905975e-02</internalNodes>
          <leafValues>
            1.8878942728042603e-01 -5.8455668389797211e-02</leafValues></_>
        <_>
          <internalNodes>
            0 -1 992 -2.1559083834290504e-03</internalNodes>
          <leafValues>
            1.1784429848194122e-01 -9.9534928798675537e-02</leafValues></_>
        <_>
          <internalNodes>
            0 -1 312 -7.5849235057830811e-02</internalNodes>
          <leafValues>
            1.5433822572231293e-01 -7.6531045138835907e-02</leafValues></_>
        <_>
          <internalNodes>
            0 -1 1225 -3.4328834153711796e-03</internalNodes>
          <leafValues>
            1.5551516413688660e-01 -7.7152401208877563e-02</leafValues></_>
        <_>
          <internalNodes>
            0 -1 1852 5.1570795476436615e-03</internalNodes>
          <leafValues>
            -6.0531981289386749e-02 1.8593446910381317e-01</leafValues></_>
        <_>
          <internalNodes>
            0 -1 1837 -6.1998274177312851e-03</internalNodes>
          <leafValues>
            2.0341441035270691e-01 -9.6413291990756989e-02</leafValues></_>
        <_>
          <internalNodes>
            0 -1 228 -4.5900814235210419e-02</internalNodes>
          <leafValues>
            -7.0656788349151611e-01 1.4189790934324265e-02</leafValues></_>
        <_>
          <internalNodes>
            0 -1 692 -8.8002681732177734e-03</internalNodes>
          <leafValues>
            1.9881518185138702e-01 -5.5577896535396576e-02</leafValues></_>
        <_>
          <internalNodes>
            0 -1 112 -1.5182517468929291e-02</internalNodes>
          <leafValues>
            -5.1045262813568115e-01 2.2808495908975601e-02</leafValues></_>
        <_>
          <internalNodes>
            0 -1 62 2.8420290909707546e-03</internalNodes>
          <leafValues>
            6.5018467605113983e-02 -1.8428795039653778e-01</leafValues></_>
        <_>
          <internalNodes>
            0 -1 419 3.4604020416736603e-02</internalNodes>
          <leafValues>
            -2.8938600793480873e-02 3.7902536988258362e-01</leafValues></_>
        <_>
          <internalNodes>
            0 -1 660 4.9907452194020152e-04</internalNodes>
          <leafValues>
            6.2214083969593048e-02 -1.7583723366260529e-01</leafValues></_>
        <_>
          <internalNodes>
            0 -1 923 -8.5326898843050003e-03</internalNodes>
          <leafValues>
            1.6911704838275909e-01 -6.2250405550003052e-02</leafValues></_>
        <_>
          <internalNodes>
            0 -1 1136 7.2978122625499964e-04</internalNodes>
          <leafValues>
            4.7068279236555099e-02 -2.1096314489841461e-01</leafValues></_>
        <_>
          <internalNodes>
            0 -1 1775 -2.8816703706979752e-03</internalNodes>
          <leafValues>
            1.1302214860916138e-01 -9.7265973687171936e-02</leafValues></_>
        <_>
          <internalNodes>
            0 -1 1954 5.7316012680530548e-04</internalNodes>
          <leafValues>
            5.8797564357519150e-02 -1.7934018373489380e-01</leafValues></_>
        <_>
          <internalNodes>
            0 -1 1404 9.0089049190282822e-03</internalNodes>
          <leafValues>
            -6.7812845110893250e-02 1.6625614464282990e-01</leafValues></_>
        <_>
          <internalNodes>
            0 -1 1487 -4.2487159371376038e-03</internalNodes>
          <leafValues>
            1.3047364354133606e-01 -9.1880738735198975e-02</leafValues></_>
        <_>
          <internalNodes>
            0 -1 1710 -1.0806464590132236e-02</internalNodes>
          <leafValues>
            2.2157971560955048e-01 -4.8822008073329926e-02</leafValues></_>
        <_>
          <internalNodes>
            0 -1 1222 1.5841122716665268e-02</internalNodes>
          <leafValues>
            -5.4548237472772598e-02 1.8930591642856598e-01</leafValues></_>
        <_>
          <internalNodes>
            0 -1 939 -8.3203980466350913e-05</internalNodes>
          <leafValues>
            1.0718394070863724e-01 -9.7393035888671875e-02</leafValues></_>
        <_>
          <internalNodes>
            0 -1 1663 -4.9710716120898724e-03</internalNodes>
          <leafValues>
